{"learner":{"attributes":{"scikit_learn":"{\"_estimator_type\": \"classifier\"}"},"feature_names":[],"feature_types":[],"gradient_booster":{"model":{"cats":{"enc":[],"feature_segments":[],"sorted_idx":[]},"gbtree_model_param":{"num_parallel_tree":"1","num_trees":"100"},"iteration_indptr":[0,1,2,3,4,5,6,7,8,9,10,11,12,13,14,15,16,17,18,19,20,21,22,23,24,25,26,27,28,29,30,31,32,33,34,35,36,37,38,39,40,41,42,43,44,45,46,47,48,49,50,51,52,53,54,55,56,57,58,59,60,61,62,63,64,65,66,67,68,69,70,71,72,73,74,75,76,77,78,79,80,81,82,83,84,85,86,87,88,89,90,91,92,93,94,95,96,97,98,99,100],"tree_info":[0,0,0,0,0,0,0,0,0,0,0,0,0,0,0,0,0,0,0,0,0,0,0,0,0,0,0,0,0,0,0,0,0,0,0,0,0,0,0,0,0,0,0,0,0,0,0,0,0,0,0,0,0,0,0,0,0,0,0,0,0,0,0,0,0,0,0,0,0,0,0,0,0,0,0,0,0,0,0,0,0,0,0,0,0,0,0,0,0,0,0,0,0,0,0,0,0,0,0,0],"trees":[{"base_weights":[-5.7150964E-9,-6.887182E-1,1.5099202E0,-9.1256045E-2,-1.6191449E0,1.7201847E0,-1.0079439E0,1.0966649E0,-9.092968E-1,-9.000437E-1,-1.7807595E0,1.9072089E0,1.0247791E0,4.5847587E-2,-7.941229E-2,1.4755442E0,-1.4391599E0,-1.5272126E-1,-1.442476E0,1.01609945E-1,-1.3925867E0,-1.3111631E0,-9.38955E-2,1.0022368E-1,1.3268043E0,-2.3521447E-1,1.5441378E0,7.924659E-1,-5.8347445E-2,9.053991E-2,2.1661691E-2,-2.7286947E-2,-8.582407E-2,1.6492607E-2,-7.6026775E-2,-8.057476E-2,-3.7740517E-4,5.6872845E-2,-5.014611E-2,1.2672186E-2,-7.652806E-2,-8.271986E-2,-6.003923E-3,8.393669E-2,-1.5515185E-2,6.0142487E-2,-6.0618263E-2,8.894469E-2,-4.3694526E-2,6.545084E-2,-9.55972E-3],"categories":[],"categories_nodes":[],"categories_segments":[],"categories_sizes":[],"default_left":[0,0,0,0,0,0,0,0,0,0,0,0,0,0,0,0,0,0,0,0,0,0,0,0,0,0,0,0,0,0,0,0,0,0,0,0,0,0,0,0,0,0,0,0,0,0,0,0,0,0,0],"id":0,"left_children":[1,3,5,7,9,11,13,15,17,19,21,23,25,27,-1,29,31,33,35,37,39,41,-1,-1,43,45,47,49,-1,-1,-1,-1,-1,-1,-1,-1,-1,-1,-1,-1,-1,-1,-1,-1,-1,-1,-1,-1,-1,-1,-1],"loss_changes":[5.2162695E2,1.9134714E2,8.491986E1,2.0588019E2,1.4045349E1,1.6954224E1,7.864027E0,8.516588E1,5.036582E1,1.3328854E1,2.5066223E0,3.7428894E0,2.1941612E1,5.901802E0,0E0,2.5665009E1,1.972395E0,3.5458393E1,1.7800034E1,1.2288164E1,4.472866E0,8.78867E0,0E0,0E0,1.1603497E1,1.6202486E1,1.4884235E1,2.2815232E0,0E0,0E0,0E0,0E0,0E0,0E0,0E0,0E0,0E0,0E0,0E0,0E0,0E0,0E0,0E0,0E0,0E0,0E0,0E0,0E0,0E0,0E0,0E0],"parents":[2147483647,0,0,1,1,2,2,3,3,4,4,5,5,6,6,7,7,8,8,9,9,10,10,11,11,12,12,13,13,15,15,16,16,17,17,18,18,19,19,20,20,21,21,24,24,25,25,26,26,27,27],"right_children":[2,4,6,8,10,12,14,16,18,20,22,24,26,28,-1,30,32,34,36,38,40,42,-1,-1,44,46,48,50,-1,-1,-1,-1,-1,-1,-1,-1,-1,-1,-1,-1,-1,-1,-1,-1,-1,-1,-1,-1,-1,-1,-1],"split_conditions":[3.2E-1,5.8380383E-1,4E-1,4.3200263E-1,2.7638897E-1,7.16299E-1,4.060464E-1,2.1E-1,4.3566403E-1,7.040053E-1,1.7751572E-1,7.7316034E-1,5.46E-1,6.1E-1,-7.941229E-2,7.171972E-1,3.2E-1,1E-1,2.55E-1,4E-2,1.0658171E-1,1.96E-1,-9.38955E-2,1.0022368E-1,5.3714424E-1,5.3413224E-1,2.2E-1,3.7578353E-1,-5.8347445E-2,9.053991E-2,2.1661691E-2,-2.7286947E-2,-8.582407E-2,1.6492607E-2,-7.6026775E-2,-8.057476E-2,-3.7740517E-4,5.6872845E-2,-5.014611E-2,1.2672186E-2,-7.652806E-2,-8.271986E-2,-6.003923E-3,8.393669E-2,-1.5515185E-2,6.0142487E-2,-6.0618263E-2,8.894469E-2,-4.3694526E-2,6.545084E-2,-9.55972E-3],"split_indices":[0,2,3,1,1,2,2,3,4,2,4,1,0,3,0,4,3,3,0,3,1,0,0,0,2,1,3,1,0,0,0,0,0,0,0,0,0,0,0,0,0,0,0,0,0,0,0,0,0,0,0],"split_type":[0,0,0,0,0,0,0,0,0,0,0,0,0,0,0,0,0,0,0,0,0,0,0,0,0,0,0,0,0,0,0,0,0,0,0,0,0,0,0,0,0,0,0,0,0,0,0,0,0,0,0],"sum_hessian":[4.99608E2,3.434805E2,1.561275E2,2.0983536E2,1.3364514E2,1.4438672E2,1.1740788E1,8.543297E1,1.244024E2,2.5729813E1,1.0791533E2,1.12411804E2,3.1974913E1,4.496472E0,7.244316E0,7.46914E1,1.0741572E1,5.1959232E1,7.244316E1,8.74314E0,1.6986671E1,2.0983536E1,8.693179E1,9.417611E1,1.8235693E1,9.492552E0,2.248236E1,2.997648E0,1.498824E0,5.5956097E1,1.87353E1,3.247452E0,7.49412E0,3.8969425E1,1.2989808E1,6.4699234E1,7.743924E0,4.496472E0,4.246668E0,1.24902E0,1.5737653E1,1.5987456E1,4.99608E0,1.498824E1,3.247452E0,3.74706E0,5.745492E0,2.0733732E1,1.748628E0,1.748628E0,1.24902E0],"tree_param":{"num_deleted":"0","num_feature":"5","num_nodes":"51","size_leaf_vector":"1"}},{"base_weights":[-5.8883545E-4,-6.570662E-1,1.4352007E0,4.4660687E-2,-1.3802658E0,1.6679964E0,-6.560564E-1,7.8501153E-1,-1.1072906E0,-7.402412E-1,-1.7698874E0,1.7993913E0,9.0148157E-1,2.6422033E-1,-1.4539104E0,1.1672481E0,-1.3611265E0,-1.3269029E0,5.0760794E-1,5.2661955E-1,-1.2650506E0,-9.9633515E-1,-9.054535E-2,9.4940774E-2,1.2477896E0,1.6234561E0,-2.7768132E-1,8.216981E-1,-6.0110237E-2,-3.0382449E-2,-8.043655E-2,7.8100316E-2,6.08798E-3,-5.0519467E-3,-7.749464E-2,-2.5621358E-2,-8.082541E-2,6.905407E-2,-4.6560504E-2,5.8496263E-2,-6.924547E-2,1.3272115E-3,-7.5081214E-2,9.568746E-3,-7.713086E-2,-4.311371E-3,8.887179E-2,2.2113437E-2,9.040314E-2,-4.7667217E-2,5.7591822E-2,7.6353E-2,-1.3504878E-2],"categories":[],"categories_nodes":[],"categories_segments":[],"categories_sizes":[],"default_left":[0,0,0,0,0,0,0,0,0,0,0,0,0,0,0,0,0,0,0,0,0,0,0,0,0,0,0,0,0,0,0,0,0,0,0,0,0,0,0,0,0,0,0,0,0,0,0,0,0,0,0,0,0],"id":1,"left_children":[1,3,5,7,9,11,13,15,17,19,21,23,25,27,29,31,33,35,37,39,41,43,-1,-1,45,47,49,51,-1,-1,-1,-1,-1,-1,-1,-1,-1,-1,-1,-1,-1,-1,-1,-1,-1,-1,-1,-1,-1,-1,-1,-1,-1],"loss_changes":[4.720207E2,1.7446292E2,7.758984E1,1.5044667E2,4.090027E1,1.2646423E1,1.2467579E1,8.965345E1,2.5156342E1,4.4394867E1,1.5115356E0,4.208252E0,1.9805944E1,7.927081E0,1.9750214E-1,3.7639847E1,3.81357E0,1.3570969E1,1.2581163E1,2.6179174E1,1.4339836E1,5.151927E0,0E0,0E0,1.5155693E1,2.3070717E0,1.02621765E1,5.606293E0,0E0,0E0,0E0,0E0,0E0,0E0,0E0,0E0,0E0,0E0,0E0,0E0,0E0,0E0,0E0,0E0,0E0,0E0,0E0,0E0,0E0,0E0,0E0,0E0,0E0],"parents":[2147483647,0,0,1,1,2,2,3,3,4,4,5,5,6,6,7,7,8,8,9,9,10,10,11,11,12,12,13,13,14,14,15,15,16,16,17,17,18,18,19,19,20,20,21,21,24,24,25,25,26,26,27,27],"right_children":[2,4,6,8,10,12,14,16,18,20,22,24,26,28,30,32,34,36,38,40,42,44,-1,-1,46,48,50,52,-1,-1,-1,-1,-1,-1,-1,-1,-1,-1,-1,-1,-1,-1,-1,-1,-1,-1,-1,-1,-1,-1,-1,-1,-1],"split_conditions":[3.2E-1,5.031495E-1,2.6E-1,5.83653E-1,4.106373E-1,7.927853E-1,5.1E-1,2E-1,2.35E-1,6.2936234E-1,5.2475643E-1,7.515244E-1,5.3714424E-1,7.071516E-1,2.0537922E-1,7.171972E-1,2.0272811E-1,3.0975372E-1,9E-2,1.2E-1,1.7198883E-1,2E-2,-9.054535E-2,9.4940774E-2,5.46E-1,5.12E-1,7.55E-1,6.4034545E-1,-6.0110237E-2,-3.0382449E-2,-8.043655E-2,7.8100316E-2,6.08798E-3,-5.0519467E-3,-7.749464E-2,-2.5621358E-2,-8.082541E-2,6.905407E-2,-4.6560504E-2,5.8496263E-2,-6.924547E-2,1.3272115E-3,-7.5081214E-2,9.568746E-3,-7.713086E-2,-4.311371E-3,8.887179E-2,2.2113437E-2,9.040314E-2,-4.7667217E-2,5.7591822E-2,7.6353E-2,-1.3504878E-2],"split_indices":[0,2,3,1,1,1,3,3,0,2,2,2,2,2,4,4,1,4,3,3,4,3,0,0,0,0,0,4,0,0,0,0,0,0,0,0,0,0,0,0,0,0,0,0,0,0,0,0,0,0,0,0,0],"split_type":[0,0,0,0,0,0,0,0,0,0,0,0,0,0,0,0,0,0,0,0,0,0,0,0,0,0,0,0,0,0,0,0,0,0,0,0,0,0,0,0,0,0,0,0,0,0,0,0,0,0,0,0,0],"sum_hessian":[4.9878357E2,3.4265558E2,1.5612798E2,1.7438579E2,1.682698E2,1.4067107E2,1.5456906E1,1.063524E2,6.803339E1,6.4771194E1,1.03498604E2,1.18935776E2,2.1735296E1,7.4883633E0,7.9685426E0,9.066133E1,1.5691066E1,6.0045986E1,7.987399E0,1.8971527E1,4.5799667E1,6.485396E0,9.7013214E1,9.870263E1,2.0233147E1,1.3247417E1,8.487879E0,5.744273E0,1.7440903E0,1.9940064E0,5.974536E0,6.545328E1,2.5208052E1,2.2443588E0,1.3446707E1,1.6476748E1,4.356924E1,4.99511E0,2.992289E0,1.4484784E1,4.4867425E0,7.2276206E0,3.857205E1,2.2478547E0,4.237541E0,5.9881134E0,1.4245033E1,2.2495615E0,1.0997856E1,5.989864E0,2.4980147E0,3.2475219E0,2.496751E0],"tree_param":{"num_deleted":"0","num_feature":"5","num_nodes":"53","size_leaf_vector":"1"}},{"base_weights":[-8.994772E-4,-6.282218E-1,1.3697853E0,4.2012054E-2,-1.3214864E0,1.5419921E0,-1.1930289E0,7.470622E-1,-1.0580516E0,-7.075602E-1,-1.696613E0,1.7089821E0,7.998156E-1,-2.7898934E-1,-7.827864E-2,1.1110783E0,-1.3046257E0,-1.2688235E0,4.849295E-1,5.004325E-1,-1.2098213E0,-9.584448E-1,-8.679172E-2,9.026529E-2,1.1471593E0,3.2918595E-4,1.6274434E0,2.7785633E-2,-5.4482616E-2,7.437646E-2,5.794087E-3,-4.877893E-3,-7.4319445E-2,-3.207378E-2,-8.1290595E-2,5.7732772E-2,-6.220281E-2,5.5793222E-2,-6.6652216E-2,1.2688471E-3,-7.187384E-2,9.236079E-3,-7.433551E-2,7.6479726E-2,-1.1834963E-2,4.7071856E-2,-4.0535666E-2,8.713838E-2,1.1819082E-2],"categories":[],"categories_nodes":[],"categories_segments":[],"categories_sizes":[],"default_left":[0,0,0,0,0,0,0,0,0,0,0,0,0,0,0,0,0,0,0,0,0,0,0,0,0,0,0,0,0,0,0,0,0,0,0,0,0,0,0,0,0,0,0,0,0,0,0,0,0],"id":2,"left_children":[1,3,5,7,9,11,13,15,17,19,21,23,25,27,-1,29,31,33,35,37,39,41,-1,-1,43,45,47,-1,-1,-1,-1,-1,-1,-1,-1,-1,-1,-1,-1,-1,-1,-1,-1,-1,-1,-1,-1,-1,-1],"loss_changes":[4.287455E2,1.5899648E2,7.0932495E1,1.3643614E2,3.7530304E1,1.6868256E1,3.1117907E0,8.148736E1,2.2965424E1,4.0346493E1,1.3378906E0,4.3813477E0,1.9124763E1,3.470768E0,0E0,3.4129456E1,3.4989548E0,1.25603485E1,1.1838221E1,2.3991215E1,1.3128372E1,4.7818375E0,0E0,0E0,1.1048866E1,1.2748458E1,1.8663635E0,0E0,0E0,0E0,0E0,0E0,0E0,0E0,0E0,0E0,0E0,0E0,0E0,0E0,0E0,0E0,0E0,0E0,0E0,0E0,0E0,0E0,0E0],"parents":[2147483647,0,0,1,1,2,2,3,3,4,4,5,5,6,6,7,7,8,8,9,9,10,10,11,11,12,12,13,13,15,15,16,16,17,17,18,18,19,19,20,20,21,21,24,24,25,25,26,26],"right_children":[2,4,6,8,10,12,14,16,18,20,22,24,26,28,-1,30,32,34,36,38,40,42,-1,-1,44,46,48,-1,-1,-1,-1,-1,-1,-1,-1,-1,-1,-1,-1,-1,-1,-1,-1,-1,-1,-1,-1,-1,-1],"split_conditions":[3.2E-1,5.031495E-1,5E-1,5.83653E-1,4.106373E-1,7.441218E-1,4.060464E-1,2E-1,2.35E-1,6.2936234E-1,5.2475643E-1,7.7316034E-1,6.94E-1,6.1E-1,-7.827864E-2,7.171972E-1,2.0272811E-1,4.3566403E-1,1.5E-1,1.2E-1,1.7198883E-1,2E-2,-8.679172E-2,9.026529E-2,5.3714424E-1,5.83653E-1,1.6E-1,2.7785633E-2,-5.4482616E-2,7.437646E-2,5.794087E-3,-4.877893E-3,-7.4319445E-2,-3.207378E-2,-8.1290595E-2,5.7732772E-2,-6.220281E-2,5.5793222E-2,-6.6652216E-2,1.2688471E-3,-7.187384E-2,9.236079E-3,-7.433551E-2,7.6479726E-2,-1.1834963E-2,4.7071856E-2,-4.0535666E-2,8.713838E-2,1.1819082E-2],"split_indices":[0,2,3,1,1,2,2,3,0,2,2,1,0,3,0,4,1,4,3,3,4,3,0,0,2,1,3,0,0,0,0,0,0,0,0,0,0,0,0,0,0,0,0,0,0,0,0,0,0],"split_type":[0,0,0,0,0,0,0,0,0,0,0,0,0,0,0,0,0,0,0,0,0,0,0,0,0,0,0,0,0,0,0,0,0,0,0,0,0,0,0,0,0,0,0,0,0,0,0,0,0],"sum_hessian":[4.9662097E2,3.410665E2,1.5555449E2,1.7389133E2,1.6717517E2,1.4613345E2,9.421034E0,1.06167564E2,6.772376E1,6.450064E1,1.0267452E2,1.1822919E2,2.7904272E1,3.2343657E0,6.1866684E0,9.055882E1,1.5608736E1,5.974082E1,7.982939E0,1.8943384E1,4.555726E1,6.463562E0,9.621096E1,9.903628E1,1.9192911E1,1.4702293E1,1.320198E1,1.7485062E0,1.4858595E0,6.534587E1,2.5212954E1,2.2439113E0,1.3364825E1,2.2680504E1,3.7060318E1,5.9935164E0,1.9894223E0,1.4475781E1,4.4676027E0,7.2280927E0,3.8329166E1,2.248384E0,4.215178E0,1.4954783E1,4.2381277E0,6.7310376E0,7.9712553E0,1.1957801E1,1.2441787E0],"tree_param":{"num_deleted":"0","num_feature":"5","num_nodes":"49","size_leaf_vector":"1"}},{"base_weights":[-1.3202266E-3,-6.0223544E-1,1.3114024E0,8.763031E-2,-1.2255983E0,1.5277972E0,-6.2811863E-1,7.4577296E-1,-9.5093966E-1,-1.6870871E-1,-1.4785286E0,9.8299164E-1,1.6956779E0,2.0679444E-1,-1.3536737E0,1.0861697E0,-1.2112265E0,-1.1691908E0,6.008443E-1,7.6477E-1,-1.2090707E0,-8.458911E-1,-1.6244711E0,1.3692597E0,-4.6253312E-1,8.8132836E-2,1.1970851E0,7.390614E-1,-5.8713485E-2,-2.822254E-2,-7.494436E-2,7.838183E-2,1.7129939E-2,-1.1770957E-2,-7.263164E-2,-2.3289321E-2,-7.765185E-2,7.090396E-2,-4.0952403E-2,6.459172E-2,-4.6036385E-2,1.5616748E-2,-6.733688E-2,7.8122615E-4,-7.904073E-2,-8.365021E-2,-5.4536223E-2,7.9710476E-2,1.0412408E-2,4.1199036E-2,-5.8467872E-2,7.991387E-2,4.710905E-3,7.094041E-2,-1.4806247E-2],"categories":[],"categories_nodes":[],"categories_segments":[],"categories_sizes":[],"default_left":[0,0,0,0,0,0,0,0,0,0,0,0,0,0,0,0,0,0,0,0,0,0,0,0,0,0,0,0,0,0,0,0,0,0,0,0,0,0,0,0,0,0,0,0,0,0,0,0,0,0,0,0,0,0,0],"id":3,"left_children":[1,3,5,7,9,11,13,15,17,19,21,23,25,27,29,31,33,35,37,39,41,43,45,47,49,-1,51,53,-1,-1,-1,-1,-1,-1,-1,-1,-1,-1,-1,-1,-1,-1,-1,-1,-1,-1,-1,-1,-1,-1,-1,-1,-1,-1,-1],"loss_changes":[3.9061334E2,1.4618298E2,6.62211E1,1.1155901E2,4.74693E1,1.1154205E1,1.0163788E1,6.781657E1,2.2156223E1,3.5497166E1,1.1912811E1,2.0399147E1,1.4224548E0,7.0821905E0,1.696186E-1,3.0095238E1,3.2536793E0,1.4362587E1,1.0991377E1,1.8402466E1,4.027996E0,1.8425112E1,1.176178E0,7.0297356E0,8.4312105E0,0E0,6.7711163E0,5.1457915E0,0E0,0E0,0E0,0E0,0E0,0E0,0E0,0E0,0E0,0E0,0E0,0E0,0E0,0E0,0E0,0E0,0E0,0E0,0E0,0E0,0E0,0E0,0E0,0E0,0E0,0E0,0E0],"parents":[2147483647,0,0,1,1,2,2,3,3,4,4,5,5,6,6,7,7,8,8,9,9,10,10,11,11,12,12,13,13,14,14,15,15,16,16,17,17,18,18,19,19,20,20,21,21,22,22,23,23,24,24,26,26,27,27],"right_children":[2,4,6,8,10,12,14,16,18,20,22,24,26,28,30,32,34,36,38,40,42,44,46,48,50,-1,52,54,-1,-1,-1,-1,-1,-1,-1,-1,-1,-1,-1,-1,-1,-1,-1,-1,-1,-1,-1,-1,-1,-1,-1,-1,-1,-1,-1],"split_conditions":[3.2E-1,4.645557E-1,2.6E-1,5.83653E-1,2.6624018E-1,5.43E-1,5.1E-1,2E-1,2.34E-1,7.040053E-1,1.7751572E-1,7.4887943E-1,7.9665947E-1,7.071516E-1,2.0537922E-1,6.1347836E-1,2.5E-1,4.3566403E-1,9E-2,1.1E-1,1.0658171E-1,5.4116684E-1,2.55E-1,7.6078767E-1,5.3413224E-1,8.8132836E-2,6.129416E-1,6.4034545E-1,-5.8713485E-2,-2.822254E-2,-7.494436E-2,7.838183E-2,1.7129939E-2,-1.1770957E-2,-7.263164E-2,-2.3289321E-2,-7.765185E-2,7.090396E-2,-4.0952403E-2,6.459172E-2,-4.6036385E-2,1.5616748E-2,-6.733688E-2,7.8122615E-4,-7.904073E-2,-8.365021E-2,-5.4536223E-2,7.9710476E-2,1.0412408E-2,4.1199036E-2,-5.8467872E-2,7.991387E-2,4.710905E-3,7.094041E-2,-1.4806247E-2],"split_indices":[0,2,3,1,1,0,3,3,0,2,4,2,1,2,4,4,3,4,3,3,1,1,0,1,1,0,2,4,0,0,0,0,0,0,0,0,0,0,0,0,0,0,0,0,0,0,0,0,0,0,0,0,0,0,0],"split_type":[0,0,0,0,0,0,0,0,0,0,0,0,0,0,0,0,0,0,0,0,0,0,0,0,0,0,0,0,0,0,0,0,0,0,0,0,0,0,0,0,0,0,0,0,0,0,0,0,0,0,0,0,0,0,0],"sum_hessian":[4.9317627E2,3.386817E2,1.5449455E2,1.6117326E2,1.7750845E2,1.3917851E2,1.531604E1,9.882788E1,6.2345383E1,3.4599342E1,1.4290912E2,3.439977E1,1.0477875E2,7.4537835E0,7.862257E0,8.4563965E1,1.4263913E1,5.487414E1,7.4712386E0,1.837607E1,1.6223274E1,2.8061783E1,1.1484733E2,2.7187563E1,7.2122073E0,9.013511E1,1.4643634E1,5.7157674E0,1.7380159E0,1.9812689E0,5.880988E0,5.0655777E1,3.3908188E1,3.2206533E0,1.104326E1,2.0154387E1,3.4719757E1,4.742765E0,2.728474E0,1.4176545E1,4.1995244E0,1.2408973E0,1.4982377E1,1.33688545E1,1.4692928E1,1.03318245E2,1.1529088E1,2.2462297E1,4.725265E0,2.4986265E0,4.713581E0,1.04082155E1,4.235419E0,3.2265182E0,2.4892495E0],"tree_param":{"num_deleted":"0","num_feature":"5","num_nodes":"55","size_leaf_vector":"1"}},{"base_weights":[-1.6631599E-3,-5.7824457E-1,1.2591273E0,-7.481511E-2,-1.375039E0,1.4680377E0,-6.072557E-1,9.48462E-1,-7.844688E-1,-7.424177E-1,-1.5198472E0,9.43252E-1,1.6301688E0,1.9693123E-1,-1.3089051E0,1.2692217E0,-1.230189E0,-1.3178392E-1,-1.2513534E0,1.2261322E-1,-1.1764401E0,-1.1098828E0,-8.029407E-2,1.3153273E0,-4.4327492E-1,8.475644E-2,1.1491605E0,7.128578E-1,-5.7058316E-2,-2.7329808E-2,-7.249289E-2,7.774888E-2,1.9543318E-2,-2.034133E-2,-7.495564E-2,2.2609513E-2,-5.166771E-2,-7.398441E-2,-1.9039955E-2,5.2797772E-2,-4.439857E-2,1.5174118E-2,-6.5385215E-2,-7.441366E-2,-4.787145E-3,7.66798E-2,9.9858E-3,3.9768234E-2,-5.6335498E-2,7.6861404E-2,4.5203823E-3,6.859218E-2,-1.42776E-2],"categories":[],"categories_nodes":[],"categories_segments":[],"categories_sizes":[],"default_left":[0,0,0,0,0,0,0,0,0,0,0,0,0,0,0,0,0,0,0,0,0,0,0,0,0,0,0,0,0,0,0,0,0,0,0,0,0,0,0,0,0,0,0,0,0,0,0,0,0,0,0,0,0],"id":4,"left_children":[1,3,5,7,9,11,13,15,17,19,21,23,25,27,29,31,33,35,37,39,41,43,-1,45,47,-1,49,51,-1,-1,-1,-1,-1,-1,-1,-1,-1,-1,-1,-1,-1,-1,-1,-1,-1,-1,-1,-1,-1,-1,-1,-1,-1],"loss_changes":[3.5675864E2,1.3497964E2,6.0939194E1,1.5137074E2,1.0810944E1,1.0271637E1,9.404603E0,6.123786E1,3.7325798E1,9.992431E0,1.9246216E0,1.8707664E1,1.3223267E0,6.6280565E0,1.5176773E-1,1.8198944E1,1.9291611E0,2.8068083E1,1.3670242E1,1.005815E1,3.8083458E0,8.095566E0,0E0,6.499981E0,7.821678E0,0E0,6.25317E0,4.7961383E0,0E0,0E0,0E0,0E0,0E0,0E0,0E0,0E0,0E0,0E0,0E0,0E0,0E0,0E0,0E0,0E0,0E0,0E0,0E0,0E0,0E0,0E0,0E0,0E0,0E0],"parents":[2147483647,0,0,1,1,2,2,3,3,4,4,5,5,6,6,7,7,8,8,9,9,10,10,11,11,12,12,13,13,14,14,15,15,16,16,17,17,18,18,19,19,20,20,21,21,23,23,24,24,26,26,27,27],"right_children":[2,4,6,8,10,12,14,16,18,20,22,24,26,28,30,32,34,36,38,40,42,44,-1,46,48,-1,50,52,-1,-1,-1,-1,-1,-1,-1,-1,-1,-1,-1,-1,-1,-1,-1,-1,-1,-1,-1,-1,-1,-1,-1,-1,-1],"split_conditions":[3.2E-1,5.8380383E-1,2.6E-1,4.3200263E-1,2.7638897E-1,5.43E-1,5.1E-1,2.1E-1,4.3566403E-1,7.040053E-1,1.7751572E-1,7.4887943E-1,7.9665947E-1,7.071516E-1,2.0537922E-1,7.171972E-1,3.2E-1,5E-2,1.99E-1,4E-2,1.0658171E-1,1.85E-1,-8.029407E-2,7.6078767E-1,5.3413224E-1,8.475644E-2,6.129416E-1,6.4034545E-1,-5.7058316E-2,-2.7329808E-2,-7.249289E-2,7.774888E-2,1.9543318E-2,-2.034133E-2,-7.495564E-2,2.2609513E-2,-5.166771E-2,-7.398441E-2,-1.9039955E-2,5.2797772E-2,-4.439857E-2,1.5174118E-2,-6.5385215E-2,-7.441366E-2,-4.787145E-3,7.66798E-2,9.9858E-3,3.9768234E-2,-5.6335498E-2,7.6861404E-2,4.5203823E-3,6.859218E-2,-1.42776E-2],"split_indices":[0,2,3,1,1,0,3,3,4,2,4,2,1,2,4,4,3,3,0,3,1,0,0,1,1,0,2,4,0,0,0,0,0,0,0,0,0,0,0,0,0,0,0,0,0,0,0,0,0,0,0,0,0],"split_type":[0,0,0,0,0,0,0,0,0,0,0,0,0,0,0,0,0,0,0,0,0,0,0,0,0,0,0,0,0,0,0,0,0,0,0,0,0,0,0,0,0,0,0,0,0,0,0,0,0,0,0,0,0],"sum_hessian":[4.8876044E2,3.3575513E2,1.5300531E2,2.0642555E2,1.2932959E2,1.377949E2,1.5210408E1,8.439567E1,1.22029884E2,2.523085E1,1.0409875E2,3.4132545E1,1.0366235E2,7.4225144E0,7.787894E0,7.392868E1,1.0466987E1,5.1423813E1,7.060607E1,8.669516E0,1.6561335E1,2.046776E1,8.363098E1,2.695146E1,7.181088E0,8.9104675E1,1.4557678E1,5.694256E0,1.7282584E0,1.9764736E0,5.8114204E0,5.520008E1,1.87286E1,3.1956577E0,7.2713284E0,3.1511383E1,1.9912428E1,5.5380733E1,1.5225338E1,4.4836607E0,4.1858554E0,1.2423708E0,1.5318963E1,1.45656E1,5.9021597E0,2.2227911E1,4.723548E0,2.4951568E0,4.6859317E0,1.0322295E1,4.2353826E0,3.2048876E0,2.4893684E0],"tree_param":{"num_deleted":"0","num_feature":"5","num_nodes":"53","size_leaf_vector":"1"}},{"base_weights":[-2.0160999E-3,-5.560431E-1,1.2121161E0,8.7095715E-2,-1.1427897E0,1.4145021E0,-5.879843E-1,6.957997E-1,-8.780942E-1,-1.5559644E-1,-1.3817346E0,9.0684766E-1,1.5719155E0,3.62409E-1,-1.1350919E0,1.012079E0,-1.1342278E0,-1.0878681E0,5.9173334E-1,6.990571E-1,-1.1175684E0,-7.860579E-1,-1.5209256E0,1.2661518E0,-4.2527756E-1,8.176949E-2,1.1051708E0,9.2784095E-1,-4.938815E-2,-4.0820223E-1,-7.173394E-2,7.315442E-2,1.619648E-2,-2.8211984E-3,-6.5879434E-2,-2.2012321E-2,-7.246796E-2,6.840014E-2,-3.8348436E-2,5.9699476E-2,-4.3988373E-2,1.4745066E-2,-6.24276E-2,1.3377806E-3,-7.457634E-2,-7.839735E-2,-5.053675E-2,7.394912E-2,9.576974E-3,3.8408898E-2,-5.434635E-2,7.411003E-2,4.3376E-3,1.3711393E-2,6.2260866E-2,-5.8592778E-2,2.5309397E-2],"categories":[],"categories_nodes":[],"categories_segments":[],"categories_sizes":[],"default_left":[0,0,0,0,0,0,0,0,0,0,0,0,0,0,0,0,0,0,0,0,0,0,0,0,0,0,0,0,0,0,0,0,0,0,0,0,0,0,0,0,0,0,0,0,0,0,0,0,0,0,0,0,0,0,0,0,0],"id":5,"left_children":[1,3,5,7,9,11,13,15,17,19,21,23,25,27,29,31,33,35,37,39,41,43,45,47,49,-1,51,53,-1,55,-1,-1,-1,-1,-1,-1,-1,-1,-1,-1,-1,-1,-1,-1,-1,-1,-1,-1,-1,-1,-1,-1,-1,-1,-1,-1,-1],"loss_changes":[3.2661588E2,1.2591589E2,5.6259705E1,9.4608475E1,4.0928207E1,9.527161E0,8.774031E0,5.8259686E1,1.9858616E1,2.9653048E1,1.0437439E1,1.7196928E1,1.2516937E0,5.980998E0,1.6898394E0,2.5801544E1,2.8924255E0,1.22117E1,9.94157E0,1.6062237E1,3.4960175E0,1.6465073E1,1.1178894E0,6.0433235E0,7.264143E0,0E0,5.8020706E0,7.3543644E-1,0E0,3.6986692E0,0E0,0E0,0E0,0E0,0E0,0E0,0E0,0E0,0E0,0E0,0E0,0E0,0E0,0E0,0E0,0E0,0E0,0E0,0E0,0E0,0E0,0E0,0E0,0E0,0E0,0E0,0E0],"parents":[2147483647,0,0,1,1,2,2,3,3,4,4,5,5,6,6,7,7,8,8,9,9,10,10,11,11,12,12,13,13,14,14,15,15,16,16,17,17,18,18,19,19,20,20,21,21,22,22,23,23,24,24,26,26,27,27,29,29],"right_children":[2,4,6,8,10,12,14,16,18,20,22,24,26,28,30,32,34,36,38,40,42,44,46,48,50,-1,52,54,-1,56,-1,-1,-1,-1,-1,-1,-1,-1,-1,-1,-1,-1,-1,-1,-1,-1,-1,-1,-1,-1,-1,-1,-1,-1,-1,-1,-1],"split_conditions":[3.2E-1,4.645557E-1,2.6E-1,5.83653E-1,2.6624018E-1,5.43E-1,4.060464E-1,2E-1,2.34E-1,7.040053E-1,1.7751572E-1,7.4887943E-1,7.9665947E-1,6.1E-1,4.6E-1,6.1347836E-1,2.0272811E-1,4.3566403E-1,9E-2,1.1E-1,1.0658171E-1,5.4116684E-1,2.55E-1,7.6078767E-1,5.3413224E-1,8.176949E-2,6.129416E-1,5.98E-1,-4.938815E-2,7.04E-1,-7.173394E-2,7.315442E-2,1.619648E-2,-2.8211984E-3,-6.5879434E-2,-2.2012321E-2,-7.246796E-2,6.840014E-2,-3.8348436E-2,5.9699476E-2,-4.3988373E-2,1.4745066E-2,-6.24276E-2,1.3377806E-3,-7.457634E-2,-7.839735E-2,-5.053675E-2,7.394912E-2,9.576974E-3,3.8408898E-2,-5.434635E-2,7.411003E-2,4.3376E-3,1.3711393E-2,6.2260866E-2,-5.8592778E-2,2.5309397E-2],"split_indices":[0,2,3,1,1,0,2,3,0,2,4,2,1,3,3,4,1,4,3,3,1,1,0,1,1,0,2,0,0,0,0,0,0,0,0,0,0,0,0,0,0,0,0,0,0,0,0,0,0,0,0,0,0,0,0,0,0],"split_type":[0,0,0,0,0,0,0,0,0,0,0,0,0,0,0,0,0,0,0,0,0,0,0,0,0,0,0,0,0,0,0,0,0,0,0,0,0,0,0,0,0,0,0,0,0,0,0,0,0,0,0,0,0,0,0,0,0],"sum_hessian":[4.8355527E2,3.3241245E2,1.5114282E2,1.5899167E2,1.7342078E2,1.3605977E2,1.5083055E1,9.767275E1,6.131892E1,3.411732E1,1.3930345E2,3.3803898E1,1.02255875E2,5.6338873E0,9.449166E0,8.366081E1,1.4011938E1,5.38879E1,7.431021E0,1.821114E1,1.5906181E1,2.7644485E1,1.11658966E2,2.6662066E1,7.1418324E0,8.7810425E1,1.4445456E1,4.191393E0,1.4424946E0,3.447361E0,6.001806E0,4.9858013E1,3.38028E1,2.2273285E0,1.1784609E1,2.0098576E1,3.3789326E1,4.7247677E0,2.7062535E0,1.4050359E1,4.160781E0,1.2436601E0,1.466252E1,1.3292018E1,1.4352468E1,1.0033814E2,1.1320824E1,2.19404E1,4.721665E0,2.489811E0,4.6520214E0,1.0210152E1,4.2353044E0,1.9792733E0,2.2121196E0,1.7250848E0,1.7222761E0],"tree_param":{"num_deleted":"0","num_feature":"5","num_nodes":"57","size_leaf_vector":"1"}},{"base_weights":[-2.2456008E-3,-5.355978E-1,1.1696107E0,2.5524077E-1,-9.868886E-1,1.3662126E0,-5.6848115E-1,9.0290475E-1,-7.162037E-1,-2.6539955E-1,-1.3724556E0,8.7330365E-1,1.5197597E0,3.5007527E-1,-1.0995549E0,1.2177418E0,-1.1861494E0,2.9153094E-1,-1.0953263E0,6.498137E-1,-9.420402E-1,-7.449496E-2,-8.2290715E-1,1.2210333E0,-4.084045E-1,1.5821865E0,1.0645697E0,8.9939356E-1,-4.8227657E-2,-3.9640135E-1,-6.9586895E-2,7.935112E-2,2.8782606E-2,-5.346626E-3,-6.626953E-2,3.57086E-2,-6.1438974E-2,-6.819095E-2,1.6210707E-3,5.5123564E-2,-2.6232949E-2,5.465472E-3,-5.81455E-2,2.8545335E-2,-5.7362117E-2,7.147279E-2,9.185145E-3,3.7115138E-2,-5.2483685E-2,8.013625E-2,4.0996283E-2,7.1614705E-2,4.1622403E-3,1.3261886E-2,6.0449105E-2,-5.6956418E-2,2.4525123E-2],"categories":[],"categories_nodes":[],"categories_segments":[],"categories_sizes":[],"default_left":[0,0,0,0,0,0,0,0,0,0,0,0,0,0,0,0,0,0,0,0,0,0,0,0,0,0,0,0,0,0,0,0,0,0,0,0,0,0,0,0,0,0,0,0,0,0,0,0,0,0,0,0,0,0,0,0,0],"id":6,"left_children":[1,3,5,7,9,11,13,15,17,19,21,23,25,27,29,31,33,35,37,39,41,-1,43,45,47,49,51,53,-1,55,-1,-1,-1,-1,-1,-1,-1,-1,-1,-1,-1,-1,-1,-1,-1,-1,-1,-1,-1,-1,-1,-1,-1,-1,-1,-1,-1],"loss_changes":[2.9969424E2,1.178573E2,5.2026062E1,7.647176E1,5.805542E1,8.892609E0,8.164126E0,4.9293285E1,1.8950481E1,4.66738E1,7.5917664E0,1.5840929E1,1.2029419E0,5.634165E0,1.5739307E0,1.4194153E1,1.3662014E0,9.950797E0,1.0837196E1,1.770145E1,1.0152191E1,0E0,1.2539909E1,5.645832E0,6.7529864E0,5.2581787E-2,5.405855E0,6.9490767E-1,0E0,3.4804645E0,0E0,0E0,0E0,0E0,0E0,0E0,0E0,0E0,0E0,0E0,0E0,0E0,0E0,0E0,0E0,0E0,0E0,0E0,0E0,0E0,0E0,0E0,0E0,0E0,0E0,0E0,0E0],"parents":[2147483647,0,0,1,1,2,2,3,3,4,4,5,5,6,6,7,7,8,8,9,9,10,10,11,11,12,12,13,13,14,14,15,15,16,16,17,17,18,18,19,19,20,20,22,22,23,23,24,24,25,25,26,26,27,27,29,29],"right_children":[2,4,6,8,10,12,14,16,18,20,22,24,26,28,30,32,34,36,38,40,42,-1,44,46,48,50,52,54,-1,56,-1,-1,-1,-1,-1,-1,-1,-1,-1,-1,-1,-1,-1,-1,-1,-1,-1,-1,-1,-1,-1,-1,-1,-1,-1,-1,-1],"split_conditions":[3.2E-1,3.715465E-1,2.6E-1,5.83653E-1,3.8850108E-1,5.43E-1,4.060464E-1,2.4E-1,3.0073968E-1,6.0202974E-1,1.99E-1,7.4887943E-1,7.9665947E-1,6.1E-1,4.6E-1,6.1347836E-1,1.8949911E-1,1.3E-1,1.96E-1,7.01649E-1,1.7751572E-1,-7.449496E-2,4.7029638E-1,7.6078767E-1,5.3413224E-1,2.4E-1,6.129416E-1,5.98E-1,-4.8227657E-2,7.04E-1,-6.9586895E-2,7.935112E-2,2.8782606E-2,-5.346626E-3,-6.626953E-2,3.57086E-2,-6.1438974E-2,-6.819095E-2,1.6210707E-3,5.5123564E-2,-2.6232949E-2,5.465472E-3,-5.81455E-2,2.8545335E-2,-5.7362117E-2,7.147279E-2,9.185145E-3,3.7115138E-2,-5.2483685E-2,8.013625E-2,4.0996283E-2,7.1614705E-2,4.1622403E-3,1.3261886E-2,6.0449105E-2,-5.6956418E-2,2.4525123E-2],"split_indices":[0,2,3,1,1,0,2,3,4,2,0,2,1,3,3,4,1,3,0,4,4,0,1,1,1,3,2,0,0,0,0,0,0,0,0,0,0,0,0,0,0,0,0,0,0,0,0,0,0,0,0,0,0,0,0,0,0],"split_type":[0,0,0,0,0,0,0,0,0,0,0,0,0,0,0,0,0,0,0,0,0,0,0,0,0,0,0,0,0,0,0,0,0,0,0,0,0,0,0,0,0,0,0,0,0,0,0,0,0,0,0,0,0,0,0,0,0],"sum_hessian":[4.774992E2,3.2852094E2,1.4897826E2,1.1951616E2,2.0900479E2,1.3403143E2,1.4946826E1,7.175051E1,4.776565E1,7.338049E1,1.3562428E2,3.3423744E1,1.0060769E2,5.6006455E0,9.34618E0,6.271582E1,9.034688E0,1.3120768E1,3.4644886E1,3.12083E1,4.2172195E1,1.10333824E2,2.5290464E1,2.6328196E1,7.095548E0,8.629668E1,1.4311015E1,4.172868E0,1.4277782E0,3.4354E0,5.91078E0,3.8882153E1,2.3833668E1,1.23449E0,7.8001976E0,1.0681573E1,2.4391944E0,2.781371E1,6.8311763E0,2.2570595E1,8.637705E0,7.409195E0,3.4763E1,4.6305733E0,2.0659891E1,2.1608555E1,4.719641E0,2.482802E0,4.6127462E0,8.295883E1,3.3378415E0,1.0075827E1,4.2351885E0,1.9779702E0,2.1948974E0,1.7148944E0,1.7205056E0],"tree_param":{"num_deleted":"0","num_feature":"5","num_nodes":"57","size_leaf_vector":"1"}},{"base_weights":[-2.1685646E-3,-5.159611E-1,1.1311237E0,6.11274E-2,-1.0967973E0,1.3226303E0,-5.503566E-1,6.51955E-1,-1.0202382E0,-4.9311054E-1,-1.4370072E0,8.4222835E-1,1.4730955E0,1.7778781E-1,-1.1976186E0,9.668735E-1,-9.712638E-1,-1.3597023E0,-4.4485182E-1,5.8611546E-2,-1.2128812E0,-7.5725585E-1,-7.318079E-2,1.1793984E0,-3.9253944E-1,1.5348909E0,1.0269052E0,6.6220737E-1,-5.3772468E-2,-2.4597805E-2,-6.657649E-2,6.4037605E-3,6.604203E-2,3.472046E-2,-5.8094557E-2,-2.6071954E-3,-7.115438E-2,2.4734503E-2,-5.6829102E-2,2.678741E-2,-4.5953866E-2,-7.0517E-2,1.1900857E-2,3.1721737E-2,-6.284551E-2,6.921366E-2,8.809559E-3,3.5881735E-2,-5.0733287E-2,7.775176E-2,3.9693367E-2,6.933868E-2,3.993994E-3,6.395674E-2,-1.309105E-2],"categories":[],"categories_nodes":[],"categories_segments":[],"categories_sizes":[],"default_left":[0,0,0,0,0,0,0,0,0,0,0,0,0,0,0,0,0,0,0,0,0,0,0,0,0,0,0,0,0,0,0,0,0,0,0,0,0,0,0,0,0,0,0,0,0,0,0,0,0,0,0,0,0,0,0],"id":7,"left_children":[1,3,5,7,9,11,13,15,17,19,21,23,25,27,29,31,33,35,37,39,41,43,-1,45,47,49,51,53,-1,-1,-1,-1,-1,-1,-1,-1,-1,-1,-1,-1,-1,-1,-1,-1,-1,-1,-1,-1,-1,-1,-1,-1,-1,-1,-1],"loss_changes":[2.7544153E2,1.0916532E2,4.8244904E1,1.0558094E2,3.2617447E1,8.356262E0,7.656563E0,5.553459E1,1.0804043E1,2.3901005E1,7.5930786E-1,1.4618423E1,1.1746521E0,5.7530246E0,1.472702E-1,2.6537575E1,6.475466E0,2.9302063E0,1.5614168E1,1.678382E1,7.8087044E0,4.943012E0,0E0,5.296753E0,6.28337E0,4.3411255E-2,5.0551214E0,4.1015162E0,0E0,0E0,0E0,0E0,0E0,0E0,0E0,0E0,0E0,0E0,0E0,0E0,0E0,0E0,0E0,0E0,0E0,0E0,0E0,0E0,0E0,0E0,0E0,0E0,0E0,0E0,0E0],"parents":[2147483647,0,0,1,1,2,2,3,3,4,4,5,5,6,6,7,7,8,8,9,9,10,10,11,11,12,12,13,13,14,14,15,15,16,16,17,17,18,18,19,19,20,20,21,21,23,23,24,24,25,25,26,26,27,27],"right_children":[2,4,6,8,10,12,14,16,18,20,22,24,26,28,30,32,34,36,38,40,42,44,-1,46,48,50,52,54,-1,-1,-1,-1,-1,-1,-1,-1,-1,-1,-1,-1,-1,-1,-1,-1,-1,-1,-1,-1,-1,-1,-1,-1,-1,-1,-1],"split_conditions":[3.2E-1,5.007724E-1,2.6E-1,6.0202974E-1,3.715465E-1,5.43E-1,5.1E-1,1.6E-1,1.59E-1,5.5460703E-1,4.5661915E-2,7.4887943E-1,7.9665947E-1,7.071516E-1,2.0537922E-1,5.7E-2,1.2871906E-1,5.951674E-2,4E-2,5E-2,2.3E-1,4.7574982E-1,-7.318079E-2,7.6078767E-1,5.3413224E-1,2.4E-1,6.129416E-1,6.4034545E-1,-5.3772468E-2,-2.4597805E-2,-6.657649E-2,6.4037605E-3,6.604203E-2,3.472046E-2,-5.8094557E-2,-2.6071954E-3,-7.115438E-2,2.4734503E-2,-5.6829102E-2,2.678741E-2,-4.5953866E-2,-7.0517E-2,1.1900857E-2,3.1721737E-2,-6.284551E-2,6.921366E-2,8.809559E-3,3.5881735E-2,-5.0733287E-2,7.775176E-2,3.9693367E-2,6.933868E-2,3.993994E-3,6.395674E-2,-1.309105E-2],"split_indices":[0,1,3,2,2,0,3,3,0,4,4,2,1,2,4,0,1,4,3,3,0,2,0,1,1,3,2,4,0,0,0,0,0,0,0,0,0,0,0,0,0,0,0,0,0,0,0,0,0,0,0,0,0,0,0],"split_type":[0,0,0,0,0,0,0,0,0,0,0,0,0,0,0,0,0,0,0,0,0,0,0,0,0,0,0,0,0,0,0,0,0,0,0,0,0,0,0,0,0,0,0,0,0,0,0,0,0,0,0,0,0,0,0],"sum_hessian":[4.710397E2,3.2447812E2,1.4656158E2,1.63213E2,1.6126514E2,1.3176775E2,1.479384E1,1.0580256E2,5.741043E1,5.9007835E1,1.0225729E2,3.3000854E1,9.876689E1,7.303271E0,7.49057E0,8.894987E1,1.6852695E1,3.5250416E1,2.2160015E1,3.3923332E1,2.5084505E1,4.9617453E0,9.729555E1,2.5957619E1,7.0432363E0,8.460894E1,1.4157954E1,5.607414E0,1.6958572E0,1.9401962E0,5.550374E0,2.6801046E1,6.214882E1,1.4592476E0,1.5393449E1,1.7140611E0,3.3536358E1,9.517598E0,1.2642417E1,2.310133E1,1.0822001E1,2.2104204E1,2.9802995E0,1.2395293E0,3.7222161E0,2.1240116E1,4.717501E0,2.4743252E0,4.568911E0,8.130034E1,3.3086038E0,9.922914E0,4.2350407E0,3.132019E0,2.4753947E0],"tree_param":{"num_deleted":"0","num_feature":"5","num_nodes":"55","size_leaf_vector":"1"}},{"base_weights":[-2.3029095E-3,-4.9749807E-1,1.0957603E0,2.4332234E-1,-9.2452615E-1,1.2828486E0,-5.34716E-1,8.512881E-1,-6.6910815E-1,-2.4693875E-1,-1.2922119E0,8.314359E-1,1.4375383E0,3.369776E-1,-1.0425482E0,1.1445091E0,-1.1143278E0,2.7614492E-1,-1.0325109E0,3.4332043E-1,-1.1488291E0,-1.408647E0,-7.552966E-1,1.1632532E0,-3.68052E-1,7.509581E-2,9.827922E-1,8.5417795E-1,-4.5646485E-2,-2.518292E-1,-6.298233E-2,7.545642E-2,2.6236052E-2,-1.5530123E-2,-6.7778304E-2,3.3600446E-2,-5.846247E-2,-6.4794175E-2,2.318107E-3,3.9888654E-2,-5.9353508E-2,3.8164932E-2,-6.304773E-2,-5.7930954E-2,-7.399415E-2,2.6350487E-2,-5.3087927E-2,6.770014E-2,1.1165369E-2,2.6743634E-2,-5.3722084E-2,6.373044E-2,-7.5522973E-3,5.2923806E-2,5.4673906E-3,-4.8331894E-2,2.8732723E-2],"categories":[],"categories_nodes":[],"categories_segments":[],"categories_sizes":[],"default_left":[0,0,0,0,0,0,0,0,0,0,0,0,0,0,0,0,0,0,0,0,0,0,0,0,0,0,0,0,0,0,0,0,0,0,0,0,0,0,0,0,0,0,0,0,0,0,0,0,0,0,0,0,0,0,0,0,0],"id":8,"left_children":[1,3,5,7,9,11,13,15,17,19,21,23,25,27,29,31,33,35,37,39,41,43,45,47,49,-1,51,53,-1,55,-1,-1,-1,-1,-1,-1,-1,-1,-1,-1,-1,-1,-1,-1,-1,-1,-1,-1,-1,-1,-1,-1,-1,-1,-1,-1,-1],"loss_changes":[2.5355574E2,1.0189099E2,4.489621E1,6.619491E1,5.0522446E1,7.9039764E0,7.2676907E0,4.2448387E1,1.6727365E1,3.9266308E1,7.191223E0,1.4608778E1,1.3249512E0,4.9864516E0,1.4194736E0,1.3367653E1,1.475172E0,8.84255E0,9.944046E0,3.2177757E1,7.204666E0,1.975708E-1,1.0654708E1,4.7445564E0,5.9833884E0,0E0,5.0757093E0,6.63255E-1,0E0,2.5813665E0,0E0,0E0,0E0,0E0,0E0,0E0,0E0,0E0,0E0,0E0,0E0,0E0,0E0,0E0,0E0,0E0,0E0,0E0,0E0,0E0,0E0,0E0,0E0,0E0,0E0,0E0,0E0],"parents":[2147483647,0,0,1,1,2,2,3,3,4,4,5,5,6,6,7,7,8,8,9,9,10,10,11,11,12,12,13,13,14,14,15,15,16,16,17,17,18,18,19,19,20,20,21,21,22,22,23,23,24,24,26,26,27,27,29,29],"right_children":[2,4,6,8,10,12,14,16,18,20,22,24,26,28,30,32,34,36,38,40,42,44,46,48,50,-1,52,54,-1,56,-1,-1,-1,-1,-1,-1,-1,-1,-1,-1,-1,-1,-1,-1,-1,-1,-1,-1,-1,-1,-1,-1,-1,-1,-1,-1,-1],"split_conditions":[3.2E-1,3.715465E-1,2.6E-1,5.83653E-1,3.8850108E-1,5.46E-1,4.060464E-1,2.4E-1,3.0073968E-1,7.071516E-1,1.99E-1,7.4887943E-1,7.9665947E-1,6.1E-1,4E-1,6.1347836E-1,2.0882164E-1,1.3E-1,1.96E-1,1.2E-1,5.740865E-2,5.064394E-1,4.7029638E-1,7.6078767E-1,3.6948955E-1,7.509581E-2,7E-2,5.569083E-1,-4.5646485E-2,7.04E-1,-6.298233E-2,7.545642E-2,2.6236052E-2,-1.5530123E-2,-6.7778304E-2,3.3600446E-2,-5.846247E-2,-6.4794175E-2,2.318107E-3,3.9888654E-2,-5.9353508E-2,3.8164932E-2,-6.304773E-2,-5.7930954E-2,-7.399415E-2,2.6350487E-2,-5.3087927E-2,6.770014E-2,1.1165369E-2,2.6743634E-2,-5.3722084E-2,6.373044E-2,-7.5522973E-3,5.2923806E-2,5.4673906E-3,-4.8331894E-2,2.8732723E-2],"split_indices":[0,2,3,1,1,0,2,3,4,2,0,2,1,3,3,4,4,3,0,3,4,2,1,1,4,0,3,1,0,0,0,0,0,0,0,0,0,0,0,0,0,0,0,0,0,0,0,0,0,0,0,0,0,0,0,0,0],"split_type":[0,0,0,0,0,0,0,0,0,0,0,0,0,0,0,0,0,0,0,0,0,0,0,0,0,0,0,0,0,0,0,0,0,0,0,0,0,0,0,0,0,0,0,0,0,0,0,0,0,0,0,0,0,0,0,0,0],"sum_hessian":[4.6430206E2,3.2037088E2,1.4393118E2,1.1730209E2,2.0306879E2,1.293071E2,1.4624083E1,7.043634E1,4.686575E1,7.2019554E1,1.3104922E2,3.4628788E1,9.4678314E1,5.5072794E0,9.116803E0,6.1656467E1,8.779876E0,1.3080904E1,3.3784847E1,4.390466E1,2.8114899E1,1.0636038E2,2.4688845E1,2.7148767E1,7.480021E0,8.0919815E1,1.37585E1,4.1193404E0,1.387939E0,2.4291813E0,6.687622E0,3.791581E1,2.374066E1,2.5550013E0,6.2248745E0,1.0688587E1,2.3923166E0,2.6993979E1,6.790867E0,3.4221287E1,9.68337E0,1.2356267E0,2.6879272E1,2.7412214E1,7.8948166E1,4.6234827E0,2.0065361E1,2.2202543E1,4.9462247E0,3.3898454E0,4.0901756E0,1.0843539E1,2.9149606E0,2.902203E0,1.2171373E0,1.2116616E0,1.2175199E0],"tree_param":{"num_deleted":"0","num_feature":"5","num_nodes":"57","size_leaf_vector":"1"}},{"base_weights":[-2.5934554E-3,-4.5033848E-1,1.1365297E0,-1.7940072E-2,-1.1624991E0,1.2714986E0,-9.747042E-1,9.0645427E-1,-5.521863E-1,-5.3641266E-1,-1.3123964E0,1.3819003E0,7.1382177E-1,-1.7008552E-1,-6.349598E-2,1.170244E0,-9.491741E-1,-1.4796299E-2,-1.0153134E0,1.3193387E-2,-1.1142493E0,-8.3850205E-1,-7.019104E-2,7.274352E-2,9.529653E-1,1.1181896E0,-4.5265338E-1,-2.6367813E-2,1.3377003E-2,1.8478798E-2,7.050695E-2,-6.672129E-3,-6.115839E-2,1.45270275E-2,-7.150841E-2,-6.466045E-2,-9.676311E-3,2.6148707E-2,-6.0911007E-2,-6.860938E-2,1.1379879E-2,-6.402904E-2,1.4738477E-2,6.62332E-2,-1.3757224E-2,1.0222308E-3,6.605505E-2,-4.1910667E-2,2.7720496E-2],"categories":[],"categories_nodes":[],"categories_segments":[],"categories_sizes":[],"default_left":[0,0,0,0,0,0,0,0,0,0,0,0,0,0,0,0,0,0,0,0,0,0,0,0,0,0,0,0,0,0,0,0,0,0,0,0,0,0,0,0,0,0,0,0,0,0,0,0,0],"id":9,"left_children":[1,3,5,7,9,11,13,15,17,19,21,23,25,27,-1,29,31,33,35,37,39,41,-1,-1,43,45,47,-1,-1,-1,-1,-1,-1,-1,-1,-1,-1,-1,-1,-1,-1,-1,-1,-1,-1,-1,-1,-1,-1],"loss_changes":[2.3405043E2,1.01415665E2,3.813452E1,1.0222318E2,1.0973572E1,6.533127E0,1.7665157E0,3.8224503E1,3.2627247E1,8.185283E0,3.1425323E0,1.7711029E0,1.1001753E1,6.7188513E-1,0E0,1.2315567E1,2.0693722E0,2.7091185E1,1.5834137E1,9.534909E0,4.65718E0,9.699617E0,0E0,0E0,8.382893E0,3.7176666E0,2.9651759E0,0E0,0E0,0E0,0E0,0E0,0E0,0E0,0E0,0E0,0E0,0E0,0E0,0E0,0E0,0E0,0E0,0E0,0E0,0E0,0E0,0E0,0E0],"parents":[2147483647,0,0,1,1,2,2,3,3,4,4,5,5,6,6,7,7,8,8,9,9,10,10,11,11,12,12,13,13,15,15,16,16,17,17,18,18,19,19,20,20,21,21,24,24,25,25,26,26],"right_children":[2,4,6,8,10,12,14,16,18,20,22,24,26,28,-1,30,32,34,36,38,40,42,-1,-1,44,46,48,-1,-1,-1,-1,-1,-1,-1,-1,-1,-1,-1,-1,-1,-1,-1,-1,-1,-1,-1,-1,-1,-1],"split_conditions":[4.25E-1,5.8380383E-1,5E-1,4.0029436E-1,2.7638897E-1,7.534649E-1,4.060464E-1,2.1E-1,4.7416067E-1,5.329661E-1,1.5342656E-1,7.7316034E-1,8E-2,6.62E-1,-6.349598E-2,3.2E-2,3.2E-1,1.7E-1,1.99E-1,1.2E-1,2.35E-1,1.96E-1,-7.019104E-2,7.274352E-2,5.3714424E-1,5.42E-1,7.47E-1,-2.6367813E-2,1.3377003E-2,1.8478798E-2,7.050695E-2,-6.672129E-3,-6.115839E-2,1.45270275E-2,-7.150841E-2,-6.466045E-2,-9.676311E-3,2.6148707E-2,-6.0911007E-2,-6.860938E-2,1.1379879E-2,-6.402904E-2,1.4738477E-2,6.62332E-2,-1.3757224E-2,1.0222308E-3,6.605505E-2,-4.1910667E-2,2.7720496E-2],"split_indices":[0,2,3,1,1,2,2,3,4,4,4,1,3,0,0,0,3,3,0,3,0,0,0,0,2,0,0,0,0,0,0,0,0,0,0,0,0,0,0,0,0,0,0,0,0,0,0,0,0],"split_type":[0,0,0,0,0,0,0,0,0,0,0,0,0,0,0,0,0,0,0,0,0,0,0,0,0,0,0,0,0,0,0,0,0,0,0,0,0,0,0,0,0,0,0,0,0,0,0,0,0],"sum_hessian":[4.5688583E2,3.2840662E2,1.2847922E2,2.0497707E2,1.2342956E2,1.21133064E2,7.346156E0,7.4820366E1,1.3015671E2,2.4727425E1,9.870213E1,9.9881775E1,2.1251287E1,2.3949056E0,4.95125E0,6.583136E1,8.989003E0,6.0725616E1,6.943108E1,1.3174112E1,1.1553312E1,1.7607246E1,8.109489E1,8.331628E1,1.6565498E1,1.58115E1,5.439787E0,1.205618E0,1.1892877E0,1.5762711E1,5.0068653E1,2.6340272E0,6.3549757E0,5.060366E1,1.0121956E1,5.14568E1,1.7974285E1,9.723912E0,3.4502003E0,9.671571E0,1.8817416E0,1.2572748E1,5.0344977E0,1.2656325E1,3.909173E0,2.6384296E0,1.317307E1,4.0549803E0,1.3848069E0],"tree_param":{"num_deleted":"0","num_feature":"5","num_nodes":"49","size_leaf_vector":"1"}},{"base_weights":[-3.015966E-3,-4.7247338E-1,1.0185748E0,5.951864E-2,-1.0165739E0,1.1759459E0,-6.8769914E-1,6.0619265E-1,-8.727288E-1,-1.8451343E-1,-1.2356948E0,1.3360858E0,6.4464414E-1,9.697457E-3,-6.449488E-2,8.964496E-1,-1.0200386E0,7.993763E-3,-1.1002591E0,4.386846E-1,-1.1349955E0,-1.3540536E0,-8.107993E-1,7.070931E-2,9.0007305E-1,-2.3810169E-1,1.0616271E0,6.4523584E-1,-5.0620038E-2,6.047572E-2,3.3531182E-3,2.7144417E-2,-5.9415776E-2,-3.9187156E-2,3.917869E-2,-6.165549E-2,-7.0656585E-3,5.570404E-2,-4.914179E-2,-6.432053E-2,9.597526E-3,-3.276951E-2,-6.912575E-2,7.189435E-3,-6.558607E-2,5.979302E-2,-1.7541405E-2,3.71998E-2,-5.023398E-2,6.5458536E-2,-6.8755145E-3,-7.68284E-3,5.6461688E-2],"categories":[],"categories_nodes":[],"categories_segments":[],"categories_sizes":[],"default_left":[0,0,0,0,0,0,0,0,0,0,0,0,0,0,0,0,0,0,0,0,0,0,0,0,0,0,0,0,0,0,0,0,0,0,0,0,0,0,0,0,0,0,0,0,0,0,0,0,0,0,0,0,0],"id":10,"left_children":[1,3,5,7,9,11,13,15,17,19,21,23,25,27,-1,29,31,33,35,37,39,41,43,-1,45,47,49,51,-1,-1,-1,-1,-1,-1,-1,-1,-1,-1,-1,-1,-1,-1,-1,-1,-1,-1,-1,-1,-1,-1,-1,-1,-1],"loss_changes":[2.1659477E2,8.9625465E1,3.8990417E1,8.074439E1,2.7672058E1,1.024675E1,5.320207E0,4.802564E1,1.1749886E1,2.0089025E1,4.984848E0,2.1115417E0,1.2094046E1,5.1020803E0,0E0,2.2047173E1,4.7437134E0,8.610232E0,5.7584877E0,2.0966522E1,2.9345455E0,9.453583E-1,1.3981234E1,0E0,7.023615E0,9.132409E0,6.719963E0,2.042524E0,0E0,0E0,0E0,0E0,0E0,0E0,0E0,0E0,0E0,0E0,0E0,0E0,0E0,0E0,0E0,0E0,0E0,0E0,0E0,0E0,0E0,0E0,0E0,0E0,0E0],"parents":[2147483647,0,0,1,1,2,2,3,3,4,4,5,5,6,6,7,7,8,8,9,9,10,10,11,11,12,12,13,13,15,15,16,16,17,17,18,18,19,19,20,20,21,21,22,22,24,24,25,25,26,26,27,27],"right_children":[2,4,6,8,10,12,14,16,18,20,22,24,26,28,-1,30,32,34,36,38,40,42,44,-1,46,48,50,52,-1,-1,-1,-1,-1,-1,-1,-1,-1,-1,-1,-1,-1,-1,-1,-1,-1,-1,-1,-1,-1,-1,-1,-1,-1],"split_conditions":[3.15E-1,5.007724E-1,3.7E-1,5.8380383E-1,2.6660493E-1,7.106737E-1,5.031495E-1,1.8E-1,1.7751572E-1,5.5460703E-1,1.89E-1,7.7316034E-1,5.46E-1,6.1E-1,-6.449488E-2,7.171972E-1,1.2871906E-1,1.08E-1,2.34E-1,8E-2,2.28E-1,4.5661915E-2,4.4757235E-1,7.070931E-2,5.3714424E-1,5.5204993E-1,8.057077E-1,5.98E-1,-5.0620038E-2,6.047572E-2,3.3531182E-3,2.7144417E-2,-5.9415776E-2,-3.9187156E-2,3.917869E-2,-6.165549E-2,-7.0656585E-3,5.570404E-2,-4.914179E-2,-6.432053E-2,9.597526E-3,-3.276951E-2,-6.912575E-2,7.189435E-3,-6.558607E-2,5.979302E-2,-1.7541405E-2,3.71998E-2,-5.023398E-2,6.5458536E-2,-6.8755145E-3,-7.68284E-3,5.6461688E-2],"split_indices":[0,1,3,2,2,2,2,3,4,4,0,1,0,3,0,4,1,0,0,3,0,4,2,0,2,1,1,0,0,0,0,0,0,0,0,0,0,0,0,0,0,0,0,0,0,0,0,0,0,0,0,0,0],"split_type":[0,0,0,0,0,0,0,0,0,0,0,0,0,0,0,0,0,0,0,0,0,0,0,0,0,0,0,0,0,0,0,0,0,0,0,0,0,0,0,0,0,0,0,0,0,0,0,0,0,0,0,0,0],"sum_hessian":[4.4961823E2,3.0842395E2,1.4119429E2,1.5639752E2,1.5202641E2,1.2955605E2,1.1638247E1,9.880663E1,5.759089E1,3.2074196E1,1.19952225E2,9.838656E1,3.1169489E1,5.8487716E0,5.789475E0,8.422291E1,1.4583723E1,1.2021812E1,4.5569077E1,1.9697615E1,1.237658E1,9.210788E1,2.7844341E1,8.1537735E1,1.684882E1,1.0137522E1,2.1031965E1,3.8337E0,2.0150716E0,6.0810677E1,2.3412231E1,1.201183E0,1.338254E1,5.9437337E0,6.0780787E0,3.9773083E1,5.795995E0,1.3499823E1,6.197793E0,1.1136378E1,1.2402015E0,4.545814E0,8.7562065E1,9.828155E0,1.8016186E1,1.3662253E1,3.1865668E0,4.4569626E0,5.680559E0,1.73571E1,3.6748667E0,1.7038426E0,2.1298573E0],"tree_param":{"num_deleted":"0","num_feature":"5","num_nodes":"53","size_leaf_vector":"1"}},{"base_weights":[-3.2890844E-3,-4.218016E-1,1.0757567E0,2.8981835E-1,-8.102881E-1,1.2516963E0,-4.5557618E-1,8.403379E-1,-5.236459E-1,-1.7207289E-1,-1.1568722E0,1.3359585E0,7.346309E-1,3.7837136E-1,-9.392951E-1,1.1261699E0,-9.6803826E-1,4.1645864E-1,-8.88283E-1,3.2756326E-1,-9.834623E-1,-1.2963455E0,-6.262416E-1,6.9623694E-2,9.8583096E-1,1.2853951E0,-1.2876657E-1,5.3503998E-2,-1.7447296E-1,-3.2934597E-1,-6.0506877E-2,7.314273E-2,2.7979705E-2,7.690381E-3,-5.8966655E-2,3.8399752E-2,-5.246665E-2,-5.9995603E-2,5.825685E-3,3.73751E-2,-5.499964E-2,1.46718165E-2,-5.7734262E-2,-5.0850905E-2,-6.964839E-2,1.7021075E-2,-5.7018753E-2,-5.3060465E-3,6.3542016E-2,6.781443E-2,1.7785037E-2,2.4575433E-2,-6.512836E-2,-4.039287E-2,3.0336061E-2,-5.077511E-2,2.0818023E-2],"categories":[],"categories_nodes":[],"categories_segments":[],"categories_sizes":[],"default_left":[0,0,0,0,0,0,0,0,0,0,0,0,0,0,0,0,0,0,0,0,0,0,0,0,0,0,0,0,0,0,0,0,0,0,0,0,0,0,0,0,0,0,0,0,0,0,0,0,0,0,0,0,0,0,0,0,0],"id":11,"left_children":[1,3,5,7,9,11,13,15,17,19,21,23,25,27,29,31,33,35,37,39,41,43,45,-1,47,49,51,-1,53,55,-1,-1,-1,-1,-1,-1,-1,-1,-1,-1,-1,-1,-1,-1,-1,-1,-1,-1,-1,-1,-1,-1,-1,-1,-1,-1,-1],"loss_changes":[2.0039069E2,8.862455E1,3.3981308E1,5.1332573E1,4.5606644E1,3.8764038E0,5.8064036E0,3.6321175E1,1.6304417E1,3.0343653E1,9.107483E0,5.001831E-1,8.651533E0,2.3562572E0,1.061707E0,1.0496872E1,2.5140123E0,7.850601E0,1.0727179E1,2.8747513E1,6.5638123E0,1.4225464E0,1.5213952E1,0E0,5.2945366E0,2.4167061E-1,6.3622684E0,0E0,2.475779E0,2.5165784E0,0E0,0E0,0E0,0E0,0E0,0E0,0E0,0E0,0E0,0E0,0E0,0E0,0E0,0E0,0E0,0E0,0E0,0E0,0E0,0E0,0E0,0E0,0E0,0E0,0E0,0E0,0E0],"parents":[2147483647,0,0,1,1,2,2,3,3,4,4,5,5,6,6,7,7,8,8,9,9,10,10,11,11,12,12,13,13,14,14,15,15,16,16,17,17,18,18,19,19,20,20,21,21,22,22,24,24,25,25,26,26,28,28,29,29],"right_children":[2,4,6,8,10,12,14,16,18,20,22,24,26,28,30,32,34,36,38,40,42,44,46,-1,48,50,52,-1,54,56,-1,-1,-1,-1,-1,-1,-1,-1,-1,-1,-1,-1,-1,-1,-1,-1,-1,-1,-1,-1,-1,-1,-1,-1,-1,-1,-1],"split_conditions":[4.25E-1,3.6270174E-1,2.6E-1,5.83653E-1,3.8850108E-1,7.9665947E-1,4.060464E-1,2.4E-1,3.0073968E-1,7.071516E-1,2.08E-1,7.534649E-1,5.3714424E-1,3.7578353E-1,4.6E-1,6.1347836E-1,1.8949911E-1,1.3E-1,1.96E-1,1.2E-1,9.084079E-2,5.064394E-1,2E-2,6.9623694E-2,5.46E-1,1.3E-1,7.7785075E-1,5.3503998E-2,6.75E-1,7.04E-1,-6.0506877E-2,7.314273E-2,2.7979705E-2,7.690381E-3,-5.8966655E-2,3.8399752E-2,-5.246665E-2,-5.9995603E-2,5.825685E-3,3.73751E-2,-5.499964E-2,1.46718165E-2,-5.7734262E-2,-5.0850905E-2,-6.964839E-2,1.7021075E-2,-5.7018753E-2,-5.3060465E-3,6.3542016E-2,6.781443E-2,1.7785037E-2,2.4575433E-2,-6.512836E-2,-4.039287E-2,3.0336061E-2,-5.077511E-2,2.0818023E-2],"split_indices":[0,2,3,1,1,1,2,3,4,2,0,2,2,1,3,4,1,3,0,3,4,2,3,0,0,3,4,0,0,0,0,0,0,0,0,0,0,0,0,0,0,0,0,0,0,0,0,0,0,0,0,0,0,0,0,0,0],"split_type":[0,0,0,0,0,0,0,0,0,0,0,0,0,0,0,0,0,0,0,0,0,0,0,0,0,0,0,0,0,0,0,0,0,0,0,0,0,0,0,0,0,0,0,0,0,0,0,0,0,0,0,0,0,0,0,0,0],"sum_hessian":[4.417359E2,3.1872583E2,1.2301007E2,1.1264306E2,2.0608278E2,1.104973E2,1.2512773E1,6.7159325E1,4.5483734E1,7.305414E1,1.3302864E2,9.3651855E1,1.6845446E1,4.673423E0,7.8393497E0,5.831871E1,8.840611E0,1.2671656E1,3.281208E1,4.5582012E1,2.7472128E1,1.0419779E2,2.8830845E1,7.807279E1,1.5579058E1,9.986353E0,6.859093E0,1.6603874E0,3.0130355E0,3.09201E0,4.7473397E0,3.5588512E1,2.2730202E1,1.4443058E0,7.3963056E0,1.0604471E1,2.0671842E0,2.4896467E1,7.9156103E0,3.5589237E1,9.992774E0,3.1638541E0,2.4308273E1,2.9741926E1,7.4455864E1,1.0127396E1,1.870345E1,3.3545349E0,1.2224524E1,8.852457E0,1.1338958E0,4.867966E0,1.9911274E0,1.6450855E0,1.3679501E0,1.4218793E0,1.6701307E0],"tree_param":{"num_deleted":"0","num_feature":"5","num_nodes":"57","size_leaf_vector":"1"}},{"base_weights":[-3.4580727E-3,-4.4366717E-1,9.6467817E-1,1.3029271E-1,-8.972351E-1,1.115974E0,-6.5229976E-1,6.9006133E-1,-7.753712E-1,-3.3984753E-1,-1.2353269E0,1.2743276E0,5.997078E-1,9.539649E-3,-6.1671287E-2,9.6489006E-1,-1.1077217E0,5.9714682E-2,-1.004815E0,3.528501E-1,-9.0019554E-1,-9.337032E-1,-6.740776E-2,6.767912E-2,8.4313816E-1,-2.2904722E-1,1.0012369E0,6.1650026E-1,-4.875834E-2,6.270741E-2,9.153731E-3,4.450891E-3,-6.2372297E-2,-3.4710202E-2,3.922783E-2,-5.751406E-2,-3.5985156E-3,3.0377973E-2,-5.8862474E-2,-5.6484576E-2,-7.9322123E-4,-7.0394516E-2,-2.0585012E-2,5.652169E-2,-1.6615195E-2,3.5609026E-2,-4.8077837E-2,5.9999865E-2,-2.1728382E-2,-7.1923486E-3,5.4068387E-2],"categories":[],"categories_nodes":[],"categories_segments":[],"categories_sizes":[],"default_left":[0,0,0,0,0,0,0,0,0,0,0,0,0,0,0,0,0,0,0,0,0,0,0,0,0,0,0,0,0,0,0,0,0,0,0,0,0,0,0,0,0,0,0,0,0,0,0,0,0,0,0],"id":12,"left_children":[1,3,5,7,9,11,13,15,17,19,21,23,25,27,-1,29,31,33,35,37,39,41,-1,-1,43,45,47,49,-1,-1,-1,-1,-1,-1,-1,-1,-1,-1,-1,-1,-1,-1,-1,-1,-1,-1,-1,-1,-1,-1,-1],"loss_changes":[1.8567235E2,7.808108E1,3.4042656E1,6.799637E1,3.11288E1,9.446259E0,4.735816E0,4.1963345E1,9.8895645E0,2.5387125E1,2.2745972E0,2.0946503E0,1.0613575E1,4.6264606E0,0E0,1.6127098E1,2.0240812E0,7.10291E0,5.385811E0,1.2251632E1,7.2854366E0,7.221895E0,0E0,0E0,6.236024E0,8.267746E0,6.573591E0,1.8448375E0,0E0,0E0,0E0,0E0,0E0,0E0,0E0,0E0,0E0,0E0,0E0,0E0,0E0,0E0,0E0,0E0,0E0,0E0,0E0,0E0,0E0,0E0,0E0],"parents":[2147483647,0,0,1,1,2,2,3,3,4,4,5,5,6,6,7,7,8,8,9,9,10,10,11,11,12,12,13,13,15,15,16,16,17,17,18,18,19,19,20,20,21,21,24,24,25,25,26,26,27,27],"right_children":[2,4,6,8,10,12,14,16,18,20,22,24,26,28,-1,30,32,34,36,38,40,42,-1,-1,44,46,48,50,-1,-1,-1,-1,-1,-1,-1,-1,-1,-1,-1,-1,-1,-1,-1,-1,-1,-1,-1,-1,-1,-1,-1],"split_conditions":[3.15E-1,4.494821E-1,3.7E-1,5.8380383E-1,3.715465E-1,7.106737E-1,5.031495E-1,2.1E-1,1.7751572E-1,4.3566403E-1,5.2475643E-1,7.7316034E-1,5.46E-1,6.1E-1,-6.1671287E-2,7.171972E-1,1.12612255E-1,1.08E-1,2.34E-1,1.6E-1,2.02E-1,1.11E-1,-6.740776E-2,6.767912E-2,5.3714424E-1,5.5204993E-1,1.6E-1,5.98E-1,-4.875834E-2,6.270741E-2,9.153731E-3,4.450891E-3,-6.2372297E-2,-3.4710202E-2,3.922783E-2,-5.751406E-2,-3.5985156E-3,3.0377973E-2,-5.8862474E-2,-5.6484576E-2,-7.9322123E-4,-7.0394516E-2,-2.0585012E-2,5.652169E-2,-1.6615195E-2,3.5609026E-2,-4.8077837E-2,5.9999865E-2,-2.1728382E-2,-7.1923486E-3,5.4068387E-2],"split_indices":[0,1,3,2,2,2,2,3,4,4,2,1,0,3,0,4,4,0,0,3,0,0,0,0,2,1,3,0,0,0,0,0,0,0,0,0,0,0,0,0,0,0,0,0,0,0,0,0,0,0,0],"split_type":[0,0,0,0,0,0,0,0,0,0,0,0,0,0,0,0,0,0,0,0,0,0,0,0,0,0,0,0,0,0,0,0,0,0,0,0,0,0,0,0,0,0,0,0,0,0,0,0,0,0,0],"sum_hessian":[4.3365982E2,2.9848236E2,1.3517744E2,1.320697E2,1.6641266E2,1.2389482E2,1.1282632E1,8.17686E1,5.03011E1,6.3586834E1,1.0282582E2,9.3689285E1,3.0205536E1,5.7348475E0,5.547784E0,7.132793E1,1.0440677E1,1.1001108E1,3.9299995E1,2.8600916E1,3.498592E1,3.0517866E1,7.230795E1,7.733546E1,1.635383E1,9.99841E0,2.0207125E1,3.779275E0,1.9555726E0,5.162385E1,1.9704075E1,1.12949E0,9.311187E0,5.413115E0,5.5879927E0,3.3796707E1,5.503288E0,2.5036177E1,3.5647402E0,2.755704E1,7.4288793E0,1.5102066E1,1.5415801E1,1.3172553E1,3.1812778E0,4.3879404E0,5.6104693E0,1.7894236E1,2.3128893E0,1.6959335E0,2.0833416E0],"tree_param":{"num_deleted":"0","num_feature":"5","num_nodes":"51","size_leaf_vector":"1"}},{"base_weights":[-3.8787695E-3,-3.9678285E-1,1.023121E0,2.7597886E-1,-7.672627E-1,1.194756E0,-4.3859684E-1,8.010393E-1,-4.9634853E-1,1.3630019E-1,-9.944265E-1,1.2806621E0,6.832004E-1,3.566201E-1,-9.053201E-1,1.0713041E0,-9.15796E-1,-1.0608871E-2,-1.1585101E0,6.7687863E-1,-7.7794665E-1,-1.1812699E0,-4.9254733E-1,9.691818E-1,6.721646E-2,1.2253878E0,-1.374472E-1,5.1371496E-2,-1.7843616E-1,-5.6766517E-2,-2.865087E-1,7.0102155E-2,2.6679669E-2,8.381057E-3,-5.6421883E-2,-4.65178E-2,2.4925692E-2,-6.433516E-2,4.6384763E-3,4.6786197E-2,-5.449116E-2,2.1098828E-2,-4.5270395E-2,-4.4684995E-2,-6.825922E-2,5.31817E-3,-5.7873186E-2,6.012186E-2,-4.464017E-3,6.487096E-2,1.6027072E-2,2.3024453E-2,-6.305501E-2,-3.906708E-2,2.8724356E-2,1.4383522E-2,-3.906459E-2],"categories":[],"categories_nodes":[],"categories_segments":[],"categories_sizes":[],"default_left":[0,0,0,0,0,0,0,0,0,0,0,0,0,0,0,0,0,0,0,0,0,0,0,0,0,0,0,0,0,0,0,0,0,0,0,0,0,0,0,0,0,0,0,0,0,0,0,0,0,0,0,0,0,0,0,0,0],"id":13,"left_children":[1,3,5,7,9,11,13,15,17,19,21,23,25,27,29,31,33,35,37,39,41,43,45,47,-1,49,51,-1,53,-1,55,-1,-1,-1,-1,-1,-1,-1,-1,-1,-1,-1,-1,-1,-1,-1,-1,-1,-1,-1,-1,-1,-1,-1,-1,-1,-1],"loss_changes":[1.7243437E2,7.724783E1,3.0190613E1,4.5205963E1,4.1101044E1,3.7873535E0,5.20613E0,3.1679562E1,1.4569493E1,2.0777609E1,1.4384888E1,4.7583008E-1,7.9095535E0,2.1873899E0,8.9503956E-1,9.499641E0,2.386417E0,1.3182365E1,3.1951237E0,1.3039859E1,2.78187E0,4.8933716E0,1.8049112E1,4.7503185E0,0E0,2.7351952E-1,5.8352456E0,0E0,2.2456174E0,0E0,1.264768E0,0E0,0E0,0E0,0E0,0E0,0E0,0E0,0E0,0E0,0E0,0E0,0E0,0E0,0E0,0E0,0E0,0E0,0E0,0E0,0E0,0E0,0E0,0E0,0E0,0E0,0E0],"parents":[2147483647,0,0,1,1,2,2,3,3,4,4,5,5,6,6,7,7,8,8,9,9,10,10,11,11,12,12,13,13,14,14,15,15,16,16,17,17,18,18,19,19,20,20,21,21,22,22,23,23,25,25,26,26,28,28,30,30],"right_children":[2,4,6,8,10,12,14,16,18,20,22,24,26,28,30,32,34,36,38,40,42,44,46,48,-1,50,52,-1,54,-1,56,-1,-1,-1,-1,-1,-1,-1,-1,-1,-1,-1,-1,-1,-1,-1,-1,-1,-1,-1,-1,-1,-1,-1,-1,-1,-1],"split_conditions":[4.25E-1,3.6270174E-1,2.6E-1,5.83653E-1,2.6624018E-1,7.9665947E-1,4.060464E-1,2.4E-1,5.4750025E-1,7.040053E-1,1.89E-1,5.46E-1,5.3714424E-1,3.7578353E-1,7.3E-1,6.1347836E-1,1.8949911E-1,9.8E-2,3.07E-1,1.6E-1,1.0658171E-1,3.9029104E-1,5.9484804E-1,7.534649E-1,6.721646E-2,1.3E-1,7.7785075E-1,5.1371496E-2,6.75E-1,-5.6766517E-2,4.6E-1,7.0102155E-2,2.6679669E-2,8.381057E-3,-5.6421883E-2,-4.65178E-2,2.4925692E-2,-6.433516E-2,4.6384763E-3,4.6786197E-2,-5.449116E-2,2.1098828E-2,-4.5270395E-2,-4.4684995E-2,-6.825922E-2,5.31817E-3,-5.7873186E-2,6.012186E-2,-4.464017E-3,6.487096E-2,1.6027072E-2,2.3024453E-2,-6.305501E-2,-3.906708E-2,2.8724356E-2,1.4383522E-2,-3.906459E-2],"split_indices":[0,2,3,1,1,1,2,3,4,2,0,0,2,1,0,4,1,0,0,3,1,4,1,2,0,3,4,0,0,0,3,0,0,0,0,0,0,0,0,0,0,0,0,0,0,0,0,0,0,0,0,0,0,0,0,0,0],"split_type":[0,0,0,0,0,0,0,0,0,0,0,0,0,0,0,0,0,0,0,0,0,0,0,0,0,0,0,0,0,0,0,0,0,0,0,0,0,0,0,0,0,0,0,0,0,0,0,0,0,0,0,0,0,0,0,0,0],"sum_hessian":[4.2532745E2,3.080782E2,1.1724926E2,1.0949647E2,1.9858173E2,1.0509199E2,1.2157278E1,6.516048E1,4.433599E1,3.997557E1,1.5860616E2,8.869404E1,1.6397951E1,4.583567E0,7.5737104E0,5.6622887E1,8.537593E0,2.6161102E1,1.817489E1,2.528476E1,1.469081E1,1.1459147E2,4.4014694E1,1.7805645E1,7.088839E1,9.577241E0,6.8207097E0,1.6254647E0,2.9581025E0,4.9129047E0,2.6608057E0,3.4063454E1,2.2559433E1,1.4354815E0,7.1021113E0,9.026699E0,1.7134403E1,1.6460236E1,1.7146553E0,2.2463861E1,2.820899E0,1.1887982E0,1.3502012E1,4.6984867E1,6.76066E1,2.3598673E1,2.0416021E1,1.4478882E1,3.326763E0,8.469186E0,1.108055E0,4.8369694E0,1.9837401E0,1.6217432E0,1.3363593E0,1.4253398E0,1.235466E0],"tree_param":{"num_deleted":"0","num_feature":"5","num_nodes":"57","size_leaf_vector":"1"}},{"base_weights":[-3.9878166E-3,-4.0700325E-1,9.419432E-1,8.0325164E-2,-8.838778E-1,1.1120156E0,-4.587883E-1,7.6967764E-1,-4.1022828E-1,-4.773164E-2,-1.1064724E0,1.2691356E0,6.8436795E-1,3.429698E-1,-9.2770356E-1,9.8389E-1,-5.938193E-2,1.313736E-1,-9.6964836E-1,5.9855103E-1,-8.354527E-1,-5.4323596E-1,-1.2489768E0,6.4766616E-2,4.501962E-1,-1.062856E-1,1.0385014E0,7.3698044E-1,-3.783178E-2,-5.7127953E-2,-2.8074497E-1,6.388745E-2,1.6330307E-2,2.2020198E-2,-6.4022504E-2,-5.9603967E-2,-2.235078E-3,5.8107954E-2,-1.5854191E-2,2.0487087E-2,-4.864515E-2,4.0317755E-3,-6.322838E-2,-6.487333E-2,-3.8632154E-2,4.572243E-2,-1.7844087E-2,4.396064E-2,-3.8877785E-2,6.261273E-2,-5.579423E-3,5.318999E-2,9.705308E-3,1.3973135E-2,-3.8342085E-2],"categories":[],"categories_nodes":[],"categories_segments":[],"categories_sizes":[],"default_left":[0,0,0,0,0,0,0,0,0,0,0,0,0,0,0,0,0,0,0,0,0,0,0,0,0,0,0,0,0,0,0,0,0,0,0,0,0,0,0,0,0,0,0,0,0,0,0,0,0,0,0,0,0,0,0],"id":14,"left_children":[1,3,5,7,9,11,13,15,17,19,21,23,25,27,29,31,-1,33,35,37,39,41,43,-1,45,47,49,51,-1,-1,53,-1,-1,-1,-1,-1,-1,-1,-1,-1,-1,-1,-1,-1,-1,-1,-1,-1,-1,-1,-1,-1,-1,-1,-1],"loss_changes":[1.5987999E2,6.8413895E1,3.0359413E1,4.9810535E1,2.762687E1,6.6585693E0,5.6846046E0,2.6828148E1,2.6233635E1,1.6949936E1,8.744934E0,1.149292E0,9.145822E0,3.1561375E0,9.6868086E-1,1.0342796E1,0E0,2.0048882E1,8.691376E0,9.829031E0,2.9625082E0,1.156688E1,1.1439514E0,0E0,1.8385296E0,7.8875227E0,5.641573E0,6.6679025E-1,0E0,0E0,1.2051036E0,0E0,0E0,0E0,0E0,0E0,0E0,0E0,0E0,0E0,0E0,0E0,0E0,0E0,0E0,0E0,0E0,0E0,0E0,0E0,0E0,0E0,0E0,0E0,0E0],"parents":[2147483647,0,0,1,1,2,2,3,3,4,4,5,5,6,6,7,7,8,8,9,9,10,10,11,11,12,12,13,13,14,14,15,15,17,17,18,18,19,19,20,20,21,21,22,22,24,24,25,25,26,26,27,27,30,30],"right_children":[2,4,6,8,10,12,14,16,18,20,22,24,26,28,30,32,-1,34,36,38,40,42,44,-1,46,48,50,52,-1,-1,54,-1,-1,-1,-1,-1,-1,-1,-1,-1,-1,-1,-1,-1,-1,-1,-1,-1,-1,-1,-1,-1,-1,-1,-1],"split_conditions":[3.26E-1,4.645557E-1,2.6E-1,4.399097E-1,2.6624018E-1,6.884562E-1,4.060464E-1,3.2E-1,4.8367748E-1,7.040053E-1,1.7751572E-1,8.774237E-1,5.46E-1,6.1E-1,7.3E-1,7.077899E-1,-5.938193E-2,1.6E-1,2.02E-1,5.643647E-1,1.0658171E-1,5.810341E-1,2.55E-1,6.4766616E-2,4.552551E-1,5.5204993E-1,8.057077E-1,3.7578353E-1,-3.783178E-2,-5.7127953E-2,4.6E-1,6.388745E-2,1.6330307E-2,2.2020198E-2,-6.4022504E-2,-5.9603967E-2,-2.235078E-3,5.8107954E-2,-1.5854191E-2,2.0487087E-2,-4.864515E-2,4.0317755E-3,-6.322838E-2,-6.487333E-2,-3.8632154E-2,4.572243E-2,-1.7844087E-2,4.396064E-2,-3.8877785E-2,6.261273E-2,-5.579423E-3,5.318999E-2,9.705308E-3,1.3973135E-2,-3.8342085E-2],"split_indices":[0,2,3,1,1,2,2,3,4,2,4,1,0,3,0,4,0,3,0,4,1,1,0,0,2,1,1,1,0,0,3,0,0,0,0,0,0,0,0,0,0,0,0,0,0,0,0,0,0,0,0,0,0,0,0],"split_type":[0,0,0,0,0,0,0,0,0,0,0,0,0,0,0,0,0,0,0,0,0,0,0,0,0,0,0,0,0,0,0,0,0,0,0,0,0,0,0,0,0,0,0,0,0,0,0,0,0,0,0,0,0,0,0],"sum_hessian":[4.1737943E2,2.930814E2,1.2429806E2,1.4536317E2,1.477182E2,1.11023994E2,1.3274068E1,6.019911E1,8.516407E1,3.1312284E1,1.16405914E2,7.975418E1,3.1269808E1,4.9976325E0,8.276435E0,5.470898E1,5.490126E0,4.3659927E1,4.1504143E1,1.7332254E1,1.3980031E1,2.4476547E1,9.192937E1,7.6718346E1,3.0358384E0,9.889642E0,2.1380167E1,3.9220579E0,1.0755748E0,5.638003E0,2.638432E0,3.7154106E1,1.7554874E1,3.638399E1,7.275936E0,3.322532E1,8.278824E0,1.0561815E1,6.770438E0,1.1928356E0,1.2787195E1,1.3601221E1,1.0875326E1,8.187118E1,1.00581875E1,1.8427843E0,1.1930541E0,3.8814585E0,6.008183E0,1.7954374E1,3.4257915E0,1.8492248E0,2.072833E0,1.4232638E0,1.2151684E0],"tree_param":{"num_deleted":"0","num_feature":"5","num_nodes":"55","size_leaf_vector":"1"}},{"base_weights":[-4.2126924E-3,-3.731116E-1,9.7622865E-1,-8.595791E-3,-1.0034153E0,1.1440388E0,-4.1228777E-1,5.0604063E-1,-6.981729E-1,-6.0598886E-1,-1.2401673E0,1.2319311E0,6.370619E-1,3.3771026E-1,-8.5829544E-1,7.413866E-1,-8.809839E-1,-8.951151E-1,2.3504561E-1,-9.604722E-3,-1.1305009E0,-6.275227E-1,-6.3379966E-2,1.2891537E0,8.884274E-1,1.169951E0,-1.3773E-1,4.7739383E-2,-2.0353861E-1,-3.028806E-1,-5.5758215E-2,-3.5169043E-3,5.3520985E-2,2.1806033E-2,-5.25737E-2,-1.7999828E-2,-5.6750428E-2,4.009872E-2,-5.92492E-2,2.490589E-2,-6.1714202E-2,-6.270093E-2,-4.83296E-3,1.5574276E-2,-5.0002288E-2,3.451264E-2,6.56301E-2,-3.9970516E-3,5.8068313E-2,6.2242128E-2,1.3734301E-2,2.2163218E-2,-6.1344225E-2,-3.1897537E-2,1.6505763E-2,-4.7088247E-2,1.9047124E-2],"categories":[],"categories_nodes":[],"categories_segments":[],"categories_sizes":[],"default_left":[0,0,0,0,0,0,0,0,0,0,0,0,0,0,0,0,0,0,0,0,0,0,0,0,0,0,0,0,0,0,0,0,0,0,0,0,0,0,0,0,0,0,0,0,0,0,0,0,0,0,0,0,0,0,0,0,0],"id":15,"left_children":[1,3,5,7,9,11,13,15,17,19,21,23,25,27,29,31,33,35,37,39,41,43,-1,45,47,49,51,-1,53,55,-1,-1,-1,-1,-1,-1,-1,-1,-1,-1,-1,-1,-1,-1,-1,-1,-1,-1,-1,-1,-1,-1,-1,-1,-1,-1,-1],"loss_changes":[1.4865735E2,6.8605225E1,2.6654549E1,6.785947E1,9.54364E0,3.6941986E0,4.588663E0,3.639982E1,1.5228607E1,1.3378394E1,3.4087372E-1,5.175171E-1,7.1480875E0,2.0346522E0,8.522682E-1,2.5225346E1,4.128332E0,8.279896E0,1.3051539E1,1.3696081E1,2.78586E0,2.0178816E0,0E0,8.118439E-2,4.135934E0,3.3737564E-1,5.4737515E0,0E0,1.082184E0,2.110933E0,0E0,0E0,0E0,0E0,0E0,0E0,0E0,0E0,0E0,0E0,0E0,0E0,0E0,0E0,0E0,0E0,0E0,0E0,0E0,0E0,0E0,0E0,0E0,0E0,0E0,0E0,0E0],"parents":[2147483647,0,0,1,1,2,2,3,3,4,4,5,5,6,6,7,7,8,8,9,9,10,10,11,11,12,12,13,13,14,14,15,15,16,16,17,17,18,18,19,19,20,20,21,21,23,23,24,24,25,25,26,26,28,28,29,29],"right_children":[2,4,6,8,10,12,14,16,18,20,22,24,26,28,30,32,34,36,38,40,42,44,-1,46,48,50,52,-1,54,56,-1,-1,-1,-1,-1,-1,-1,-1,-1,-1,-1,-1,-1,-1,-1,-1,-1,-1,-1,-1,-1,-1,-1,-1,-1,-1,-1],"split_conditions":[4.25E-1,5.8380383E-1,2.6E-1,5.5204993E-1,3.937247E-1,7.9665947E-1,4.060464E-1,1.8E-1,2.35E-1,4.8719198E-1,5.4741405E-2,7.534649E-1,5.3714424E-1,4.4E-1,4.6E-1,5.7E-2,1.2871906E-1,2.6291615E-1,1.5E-1,1.2E-1,2.35E-1,4.7811422E-1,-6.3379966E-2,4.8E-1,5.46E-1,9.063109E-1,7.7785075E-1,4.7739383E-2,6.62E-1,7.04E-1,-5.5758215E-2,-3.5169043E-3,5.3520985E-2,2.1806033E-2,-5.25737E-2,-1.7999828E-2,-5.6750428E-2,4.009872E-2,-5.92492E-2,2.490589E-2,-6.1714202E-2,-6.270093E-2,-4.83296E-3,1.5574276E-2,-5.0002288E-2,3.451264E-2,6.56301E-2,-3.9970516E-3,5.8068313E-2,6.2242128E-2,1.3734301E-2,2.2163218E-2,-6.1344225E-2,-3.1897537E-2,1.6505763E-2,-4.7088247E-2,1.9047124E-2],"split_indices":[0,2,3,1,1,1,2,3,0,4,4,2,2,3,3,0,1,2,3,3,0,1,0,0,0,4,4,0,0,0,0,0,0,0,0,0,0,0,0,0,0,0,0,0,0,0,0,0,0,0,0,0,0,0,0,0,0],"split_type":[0,0,0,0,0,0,0,0,0,0,0,0,0,0,0,0,0,0,0,0,0,0,0,0,0,0,0,0,0,0,0,0,0,0,0,0,0,0,0,0,0,0,0,0,0,0,0,0,0,0,0,0,0,0,0,0,0],"sum_hessian":[4.090077E2,2.9763834E2,1.1136936E2,1.892217E2,1.08416626E2,9.95181E1,1.1851258E1,1.0850774E2,8.071396E1,4.1803055E1,6.661357E1,8.359555E1,1.5922547E1,4.510053E0,7.341205E0,9.316524E1,1.5342498E1,6.6682434E1,1.4031524E1,2.0037825E1,2.176523E1,3.8781333E0,6.273544E1,6.929849E1,1.4297056E1,9.131816E0,6.7907314E0,1.7503898E0,2.7596633E0,3.0106187E0,4.3305864E0,2.7098778E1,6.606646E1,1.579808E0,1.376269E1,2.1414598E1,4.5267834E1,1.0339036E1,3.692488E0,1.4584648E1,5.453177E0,1.9252123E1,2.5131073E0,1.1480715E0,2.7300618E0,3.7577567E0,6.554074E1,3.2991185E0,1.0997938E1,8.066551E0,1.0652642E0,4.815167E0,1.9755645E0,1.4135485E0,1.3461149E0,1.3614414E0,1.6491773E0],"tree_param":{"num_deleted":"0","num_feature":"5","num_nodes":"57","size_leaf_vector":"1"}},{"base_weights":[-4.448102E-3,-3.6166883E-1,9.545129E-1,2.6275215E-1,-7.112668E-1,1.1206572E0,-4.01202E-1,7.514755E-1,-4.4895127E-1,-1.423334E-1,-1.0341401E0,1.2356598E0,7.1616596E-1,1.12523586E-1,-5.2841693E-2,1.0012037E0,-8.515777E-1,7.770949E-3,-1.1015316E0,1.8671472E-1,-1.1687596E0,-1.1750537E0,-5.2626526E-1,6.280584E-2,5.134517E-1,1.1956062E0,5.0531514E-2,7.619321E-1,-5.158146E-1,6.6932976E-2,2.3962867E-2,8.297917E-3,-5.309934E-2,-4.384361E-2,2.4631035E-2,-6.1446764E-2,3.9225207E-3,-4.1043364E-2,3.5736457E-2,-2.0690257E-2,-6.413957E-2,-4.4506315E-2,-6.413422E-2,1.8793834E-2,-5.14112E-2,-9.542916E-3,4.2633537E-2,6.269979E-2,1.5780237E-2,-3.0008575E-2,5.1375892E-2,1.4150453E-3,5.112324E-2,-2.319659E-3,-4.33245E-2],"categories":[],"categories_nodes":[],"categories_segments":[],"categories_sizes":[],"default_left":[0,0,0,0,0,0,0,0,0,0,0,0,0,0,0,0,0,0,0,0,0,0,0,0,0,0,0,0,0,0,0,0,0,0,0,0,0,0,0,0,0,0,0,0,0,0,0,0,0,0,0,0,0,0,0],"id":16,"left_children":[1,3,5,7,9,11,13,15,17,19,21,23,25,27,-1,29,31,33,35,37,39,41,43,-1,45,47,49,51,53,-1,-1,-1,-1,-1,-1,-1,-1,-1,-1,-1,-1,-1,-1,-1,-1,-1,-1,-1,-1,-1,-1,-1,-1,-1,-1],"loss_changes":[1.3809793E2,6.4303085E1,2.5094635E1,3.7259182E1,3.449032E1,3.6613846E0,4.390197E0,2.6196472E1,1.3075688E1,2.3666813E1,7.9792175E0,4.5895386E-1,7.6032867E0,3.6630862E0,0E0,9.087101E0,2.1188407E0,1.1920381E1,2.8111095E0,2.9015413E1,9.3195724E-1,1.7173309E0,1.302236E1,0E0,1.058559E0,3.192463E-1,7.672522E0,8.014648E-1,7.2844386E-1,0E0,0E0,0E0,0E0,0E0,0E0,0E0,0E0,0E0,0E0,0E0,0E0,0E0,0E0,0E0,0E0,0E0,0E0,0E0,0E0,0E0,0E0,0E0,0E0,0E0,0E0],"parents":[2147483647,0,0,1,1,2,2,3,3,4,4,5,5,6,6,7,7,8,8,9,9,10,10,11,11,12,12,13,13,15,15,16,16,17,17,18,18,19,19,20,20,21,21,22,22,24,24,25,25,26,26,27,27,28,28],"right_children":[2,4,6,8,10,12,14,16,18,20,22,24,26,28,-1,30,32,34,36,38,40,42,44,-1,46,48,50,52,54,-1,-1,-1,-1,-1,-1,-1,-1,-1,-1,-1,-1,-1,-1,-1,-1,-1,-1,-1,-1,-1,-1,-1,-1,-1,-1],"split_conditions":[4.25E-1,3.6270174E-1,2.6E-1,5.83653E-1,3.8850108E-1,7.349146E-1,5.516815E-1,2.4E-1,5.4750025E-1,1.2E-1,2.08E-1,2.4E-1,5.586933E-1,5E-1,-5.2841693E-2,6.1347836E-1,1.8949911E-1,9.8E-2,3.07E-1,5.1E-2,5.161833E-1,5.064394E-1,2E-2,6.280584E-2,6E-1,9.436327E-1,7.55E-1,5.81E-1,6.1E-1,6.6932976E-2,2.3962867E-2,8.297917E-3,-5.309934E-2,-4.384361E-2,2.4631035E-2,-6.1446764E-2,3.9225207E-3,-4.1043364E-2,3.5736457E-2,-2.0690257E-2,-6.413957E-2,-4.4506315E-2,-6.413422E-2,1.8793834E-2,-5.14112E-2,-9.542916E-3,4.2633537E-2,6.269979E-2,1.5780237E-2,-3.0008575E-2,5.1375892E-2,1.4150453E-3,5.112324E-2,-2.319659E-3,-4.33245E-2],"split_indices":[0,2,3,1,1,1,2,3,4,3,0,3,2,3,0,4,1,0,0,0,2,2,3,0,0,4,0,0,3,0,0,0,0,0,0,0,0,0,0,0,0,0,0,0,0,0,0,0,0,0,0,0,0,0,0],"split_type":[0,0,0,0,0,0,0,0,0,0,0,0,0,0,0,0,0,0,0,0,0,0,0,0,0,0,0,0,0,0,0,0,0,0,0,0,0,0,0,0,0,0,0,0,0,0,0,0,0,0,0,0,0,0,0],"sum_hessian":[4.011264E2,2.9271176E2,1.0841464E2,1.051502E2,1.8756155E2,9.673326E1,1.1681383E1,6.2307827E1,4.284237E1,6.8427185E1,1.1913437E2,7.371904E1,2.3014215E1,7.013933E0,4.66745E0,5.4234467E1,8.07336E0,2.5784578E1,1.7057793E1,5.2435646E1,1.5991544E1,9.223063E1,2.6903736E1,7.096951E1,2.7495272E0,1.2915387E1,1.0098829E1,3.3445818E0,3.6693513E0,3.1988247E1,2.224622E1,1.4195738E0,6.6537867E0,8.842414E0,1.6942163E1,1.5358081E1,1.6997107E0,1.7839273E1,3.459637E1,2.7058887E0,1.3285655E1,2.7829245E1,6.440139E1,9.707742E0,1.7195993E1,1.0359583E0,1.7135689E0,1.1713203E1,1.2021834E0,6.2931128E0,3.8057165E0,1.1670176E0,2.1775644E0,2.0531962E0,1.616155E0],"tree_param":{"num_deleted":"0","num_feature":"5","num_nodes":"55","size_leaf_vector":"1"}},{"base_weights":[-4.604377E-3,-3.5073644E-1,9.33507E-1,-4.156061E-3,-9.618549E-1,1.0980403E0,-3.8997856E-1,7.429704E-1,-4.2988122E-1,-6.443004E-1,-6.2750295E-2,1.187515E0,5.9718144E-1,3.2688013E-1,-8.234399E-1,9.544636E-1,-7.579068E-1,3.6693234E-2,-8.5591626E-1,-1.6038322E-1,-1.1344528E0,8.655723E-1,6.2822424E-2,1.1202611E0,-1.3310018E-1,4.8043344E-2,-1.75616E-1,-9.459647E-1,-4.5849923E-5,8.997485E-3,6.01524E-2,-2.5472583E-3,-5.1424045E-2,1.4678328E-2,-6.26054E-2,-5.5818606E-2,-7.3511824E-3,-3.8669847E-2,3.115997E-2,1.70906E-3,-5.951065E-2,5.5127192E-2,-5.322351E-3,5.9887238E-2,1.218918E-2,2.1265944E-2,-5.8996674E-2,-3.716481E-2,2.7037045E-2,-1.6071146E-2,-5.7067413E-2],"categories":[],"categories_nodes":[],"categories_segments":[],"categories_sizes":[],"default_left":[0,0,0,0,0,0,0,0,0,0,0,0,0,0,0,0,0,0,0,0,0,0,0,0,0,0,0,0,0,0,0,0,0,0,0,0,0,0,0,0,0,0,0,0,0,0,0,0,0,0,0],"id":17,"left_children":[1,3,5,7,9,11,13,15,17,19,-1,21,23,25,27,29,31,33,35,37,39,41,-1,43,45,-1,47,49,-1,-1,-1,-1,-1,-1,-1,-1,-1,-1,-1,-1,-1,-1,-1,-1,-1,-1,-1,-1,-1,-1,-1],"loss_changes":[1.2834329E2,6.1146336E1,2.3626198E1,5.923773E1,8.917435E0,3.5488052E0,4.158674E0,2.2182705E1,2.3612804E1,1.2201134E1,0E0,6.790085E-1,6.4186077E0,1.8994327E0,8.1390667E-1,1.1277126E1,1.6514087E0,1.9430317E1,1.1292717E1,1.3660353E1,1.7200432E0,4.0913534E0,0E0,3.6466312E-1,5.0284333E0,0E0,1.9781665E0,4.9166107E-1,0E0,0E0,0E0,0E0,0E0,0E0,0E0,0E0,0E0,0E0,0E0,0E0,0E0,0E0,0E0,0E0,0E0,0E0,0E0,0E0,0E0,0E0,0E0],"parents":[2147483647,0,0,1,1,2,2,3,3,4,4,5,5,6,6,7,7,8,8,9,9,11,11,12,12,13,13,14,14,15,15,16,16,17,17,18,18,19,19,20,20,21,21,23,23,24,24,26,26,27,27],"right_children":[2,4,6,8,10,12,14,16,18,20,-1,22,24,26,28,30,32,34,36,38,40,42,-1,44,46,-1,48,50,-1,-1,-1,-1,-1,-1,-1,-1,-1,-1,-1,-1,-1,-1,-1,-1,-1,-1,-1,-1,-1,-1,-1],"split_conditions":[4.25E-1,5.8380383E-1,2.6E-1,4.0029436E-1,4.7029638E-1,7.9665947E-1,4.060464E-1,2.1E-1,4.7416067E-1,4.8719198E-1,-6.2750295E-2,5.46E-1,5.3714424E-1,3.7578353E-1,7.79E-1,3.2E-2,3.2E-1,1.7E-1,1.99E-1,1.56E-1,1.1430123E-1,7.534649E-1,6.2822424E-2,1.3E-1,7.7785075E-1,4.8043344E-2,6.75E-1,5.516815E-1,-4.5849923E-5,8.997485E-3,6.01524E-2,-2.5472583E-3,-5.1424045E-2,1.4678328E-2,-6.26054E-2,-5.5818606E-2,-7.3511824E-3,-3.8669847E-2,3.115997E-2,1.70906E-3,-5.951065E-2,5.5127192E-2,-5.322351E-3,5.9887238E-2,1.218918E-2,2.1265944E-2,-5.8996674E-2,-3.716481E-2,2.7037045E-2,-1.6071146E-2,-5.7067413E-2],"split_indices":[0,2,3,1,1,1,2,3,4,4,0,0,2,1,0,0,3,3,0,0,1,2,0,3,4,0,0,2,0,0,0,0,0,0,0,0,0,0,0,0,0,0,0,0,0,0,0,0,0,0,0],"split_type":[0,0,0,0,0,0,0,0,0,0,0,0,0,0,0,0,0,0,0,0,0,0,0,0,0,0,0,0,0,0,0,0,0,0,0,0,0,0,0,0,0,0,0,0,0,0,0,0,0,0,0],"sum_hessian":[3.932463E2,2.877151E2,1.0553123E2,1.842367E2,1.03478386E2,9.401392E1,1.1517302E1,6.660429E1,1.1763241E2,5.1206745E1,5.2271645E1,7.860142E1,1.5412502E1,4.4325805E0,7.0847206E0,5.8697155E1,7.9071326E0,5.6581146E1,6.1051258E1,2.6435118E1,2.4771627E1,1.6252644E1,6.2348778E1,8.669079E0,6.743423E0,1.5565424E0,2.876038E0,6.035572E0,1.0491488E0,1.4680634E1,4.401652E1,2.5175388E0,5.3895936E0,4.7821896E1,8.759251E0,4.422693E1,1.6824331E1,1.4839137E1,1.159598E1,1.1457486E0,2.362588E1,1.2959038E1,3.2936053E0,7.628178E0,1.0409008E0,4.7847643E0,1.9586589E0,1.583545E0,1.2924931E0,2.0685515E0,3.9670205E0],"tree_param":{"num_deleted":"0","num_feature":"5","num_nodes":"51","size_leaf_vector":"1"}},{"base_weights":[-4.770581E-3,-3.6113057E-1,8.601407E-1,4.2123228E-1,-6.201174E-1,1.0227119E0,-4.0776494E-1,6.8465465E-1,-8.704216E-1,-5.666682E-2,-9.433253E-1,1.1847385E0,5.996494E-1,3.2285592E-1,-8.480943E-1,1.306191E0,1.7604476E-1,-2.149546E-1,-6.071666E-2,3.4456748E-1,-9.084849E-1,-6.0505696E-2,-6.3566893E-1,6.060904E-2,3.8230106E-1,1.0706216E0,4.973715E-2,6.912751E-1,-3.561499E-2,-5.653844E-2,-3.2926732E-1,6.696624E-2,1.3520687E-2,4.427039E-2,-3.702416E-2,2.4407392E-2,-4.529574E-2,3.4093935E-2,-3.7961002E-2,3.589862E-2,-5.1174164E-2,-1.8952711E-3,-4.959953E-2,4.135218E-2,-1.6841387E-2,1.3090807E-2,6.068476E-2,-2.9263893E-2,4.6353247E-2,5.0265577E-2,8.737355E-3,1.9166483E-2,-4.342175E-2],"categories":[],"categories_nodes":[],"categories_segments":[],"categories_sizes":[],"default_left":[0,0,0,0,0,0,0,0,0,0,0,0,0,0,0,0,0,0,0,0,0,0,0,0,0,0,0,0,0,0,0,0,0,0,0,0,0,0,0,0,0,0,0,0,0,0,0,0,0,0,0,0,0],"id":18,"left_children":[1,3,5,7,9,11,13,15,17,19,21,23,25,27,29,31,33,35,-1,37,39,-1,41,-1,43,45,47,49,-1,-1,51,-1,-1,-1,-1,-1,-1,-1,-1,-1,-1,-1,-1,-1,-1,-1,-1,-1,-1,-1,-1,-1,-1],"loss_changes":[1.1939139E2,5.5844334E1,2.3715424E1,2.4011856E1,3.755262E1,6.1765137E0,4.636465E0,1.8016994E1,2.466133E0,2.6403742E1,9.996437E0,1.1137466E0,7.6770897E0,2.7133832E0,9.090314E-1,5.2399445E-1,2.2045877E1,3.0550892E0,0E0,2.010887E1,5.3582478E0,0E0,1.3385828E1,0E0,1.5032032E0,1.5370998E0,8.7982435E0,6.0333824E-1,0E0,0E0,2.0588331E0,0E0,0E0,0E0,0E0,0E0,0E0,0E0,0E0,0E0,0E0,0E0,0E0,0E0,0E0,0E0,0E0,0E0,0E0,0E0,0E0,0E0,0E0],"parents":[2147483647,0,0,1,1,2,2,3,3,4,4,5,5,6,6,7,7,8,8,9,9,10,10,11,11,12,12,13,13,14,14,15,15,16,16,17,17,19,19,20,20,22,22,24,24,25,25,26,26,27,27,30,30],"right_children":[2,4,6,8,10,12,14,16,18,20,22,24,26,28,30,32,34,36,-1,38,40,-1,42,-1,44,46,48,50,-1,-1,52,-1,-1,-1,-1,-1,-1,-1,-1,-1,-1,-1,-1,-1,-1,-1,-1,-1,-1,-1,-1,-1,-1],"split_conditions":[3.26E-1,2.7697176E-1,2.6E-1,1.6E-1,3.8850108E-1,6.884562E-1,4.060464E-1,4.494821E-1,4.0029436E-1,7.071516E-1,1.38E-1,8.774237E-1,5.9484804E-1,6.1E-1,7.04E-1,1.4E-1,5.6318355E-1,3.2E-1,-6.071666E-2,1.2E-1,5.740865E-2,-6.0505696E-2,4.7574982E-1,6.060904E-2,4.552551E-1,4.91E-1,7.11E-1,3.7578353E-1,-3.561499E-2,-5.653844E-2,4.6E-1,6.696624E-2,1.3520687E-2,4.427039E-2,-3.702416E-2,2.4407392E-2,-4.529574E-2,3.4093935E-2,-3.7961002E-2,3.589862E-2,-5.1174164E-2,-1.8952711E-3,-4.959953E-2,4.135218E-2,-1.6841387E-2,1.3090807E-2,6.068476E-2,-2.9263893E-2,4.6353247E-2,5.0265577E-2,8.737355E-3,1.9166483E-2,-4.342175E-2],"split_indices":[0,2,3,3,1,2,2,1,1,2,0,1,1,3,0,3,4,3,0,3,4,0,2,0,2,0,0,1,0,0,3,0,0,0,0,0,0,0,0,0,0,0,0,0,0,0,0,0,0,0,0,0,0],"split_type":[0,0,0,0,0,0,0,0,0,0,0,0,0,0,0,0,0,0,0,0,0,0,0,0,0,0,0,0,0,0,0,0,0,0,0,0,0,0,0,0,0,0,0,0,0,0,0,0,0,0,0,0,0],"sum_hessian":[3.8535016E2,2.7331967E2,1.12030464E2,6.781964E1,2.0550005E2,9.94698E1,1.2560663E1,5.6721657E1,1.1097983E1,7.5338036E1,1.30162E2,7.062218E1,2.8847628E1,4.8236914E0,7.7369723E0,2.4821226E1,3.1900429E1,4.378312E0,6.7196717E0,5.161919E1,2.3718843E1,6.814005E1,6.2021954E1,6.779313E1,2.8290443E0,1.5029081E1,1.3818546E1,3.8025417E0,1.0211495E0,4.244794E0,3.4921787E0,2.3767845E1,1.0533804E0,1.800167E1,1.3898758E1,2.3155715E0,2.0627406E0,3.9829697E1,1.1789494E1,1.220046E0,2.2498798E1,2.3576502E1,3.844545E1,1.6552799E0,1.1737646E0,2.6843255E0,1.2344755E1,8.209412E0,5.6091347E0,1.7763052E0,2.0262365E0,1.628667E0,1.8635116E0],"tree_param":{"num_deleted":"0","num_feature":"5","num_nodes":"53","size_leaf_vector":"1"}},{"base_weights":[-4.6324055E-3,-4.229147E-1,6.984181E-1,-4.5403767E-2,-9.388188E-1,9.0798146E-1,-9.092423E-1,3.8811606E-1,-7.594705E-1,-4.970536E-1,-6.05306E-2,1.0978333E0,2.9082397E-1,-1.0356972E0,2.3620294E-2,7.0560044E-1,-4.7208294E-1,-4.7526985E-2,-9.7603846E-1,-1.1639701E-1,-6.0621124E-2,1.1982962E0,6.426742E-1,-4.664384E-1,7.9277384E-1,-5.829986E-1,-6.288251E-2,5.646156E-2,4.3274043E-3,3.026098E-2,-4.081337E-2,-3.2336317E-2,2.9293427E-2,-5.29292E-2,1.153056E-2,1.5533875E-2,-4.818417E-2,6.062716E-2,1.6818209E-2,4.9681667E-2,-1.0396171E-2,1.5888069E-2,-5.10957E-2,5.2874632E-2,-3.2316044E-2,1.4480486E-2,-5.3232323E-2],"categories":[],"categories_nodes":[],"categories_segments":[],"categories_sizes":[],"default_left":[0,0,0,0,0,0,0,0,0,0,0,0,0,0,0,0,0,0,0,0,0,0,0,0,0,0,0,0,0,0,0,0,0,0,0,0,0,0,0,0,0,0,0,0,0,0,0],"id":19,"left_children":[1,3,5,7,9,11,13,15,17,19,-1,21,23,25,-1,27,29,31,33,35,-1,37,39,41,43,45,-1,-1,-1,-1,-1,-1,-1,-1,-1,-1,-1,-1,-1,-1,-1,-1,-1,-1,-1,-1,-1],"loss_changes":[1.11592834E2,4.6293343E1,4.8516167E1,4.3148865E1,1.1462685E1,1.4412369E1,3.4286575E0,2.4038277E1,8.06897E0,1.0742817E1,0E0,3.610115E0,1.2129904E1,8.46941E-1,0E0,1.6634138E1,9.392679E0,5.4371576E0,4.2587852E0,1.0139548E1,0E0,5.415497E-1,6.02094E0,5.9712477E0,7.9126415E0,3.266308E0,0E0,0E0,0E0,0E0,0E0,0E0,0E0,0E0,0E0,0E0,0E0,0E0,0E0,0E0,0E0,0E0,0E0,0E0,0E0,0E0,0E0],"parents":[2147483647,0,0,1,1,2,2,3,3,4,4,5,5,6,6,7,7,8,8,9,9,11,11,12,12,13,13,15,15,16,16,17,17,18,18,19,19,21,21,22,22,23,23,24,24,25,25],"right_children":[2,4,6,8,10,12,14,16,18,20,-1,22,24,26,-1,28,30,32,34,36,-1,38,40,42,44,46,-1,-1,-1,-1,-1,-1,-1,-1,-1,-1,-1,-1,-1,-1,-1,-1,-1,-1,-1,-1,-1],"split_conditions":[2.55E-1,5.5204993E-1,4E-1,5.780675E-1,3.6682782E-1,7.106737E-1,8.87E-1,8E-2,1.7751572E-1,6.0724515E-1,-6.05306E-2,7.633812E-1,5.43E-1,3.7578353E-1,2.3620294E-2,6.0724515E-1,2.0272811E-1,1.08E-1,2.34E-1,5E-2,-6.0621124E-2,3.2E-1,4.7574982E-1,5.3413224E-1,1.6E-1,3.4836546E-1,-6.288251E-2,5.646156E-2,4.3274043E-3,3.026098E-2,-4.081337E-2,-3.2336317E-2,2.9293427E-2,-5.29292E-2,1.153056E-2,1.5533875E-2,-4.818417E-2,6.062716E-2,1.6818209E-2,4.9681667E-2,-1.0396171E-2,1.5888069E-2,-5.10957E-2,5.2874632E-2,-3.2316044E-2,1.4480486E-2,-5.3232323E-2],"split_indices":[0,1,3,2,2,2,0,3,4,4,0,1,0,1,0,4,1,0,0,3,0,3,2,1,3,2,0,0,0,0,0,0,0,0,0,0,0,0,0,0,0,0,0,0,0,0,0],"split_type":[0,0,0,0,0,0,0,0,0,0,0,0,0,0,0,0,0,0,0,0,0,0,0,0,0,0,0,0,0,0,0,0,0,0,0,0,0,0,0,0,0,0,0,0,0,0,0],"sum_hessian":[3.774681E2,2.3691386E2,1.4055426E2,1.374346E2,9.9479256E1,1.2473048E2,1.582378E1,8.580044E1,5.1634167E1,3.8968952E1,6.0510303E1,9.479156E1,2.9938923E1,1.4726345E1,1.0974349E0,6.2801304E1,2.2999134E1,1.2327689E1,3.9306477E1,2.6193682E1,1.2775272E1,7.631466E1,1.8476892E1,1.1962519E1,1.7976404E1,6.037942E0,8.688403E0,3.679652E1,2.6004782E1,5.3851423E0,1.7613993E1,6.3240347E0,6.003655E0,3.6904587E1,2.4018912E0,1.7836515E1,8.357165E0,7.467361E1,1.6410565E0,1.296099E1,5.5159025E0,5.137514E0,6.825004E0,1.5407409E1,2.568995E0,2.2892275E0,3.7487144E0],"tree_param":{"num_deleted":"0","num_feature":"5","num_nodes":"47","size_leaf_vector":"1"}},{"base_weights":[-4.860264E-3,-3.2181665E-1,8.798991E-1,4.2622963E-1,-5.693831E-1,1.040339E0,-3.5572657E-1,6.761301E-1,-7.960137E-1,-1.535792E-1,-9.8963064E-1,1.1618682E0,6.3537E-1,1.1429103E-1,-9.761806E-1,1.2667979E0,2.0183107E-1,-1.7137547E-1,-5.8570933E-2,-9.1188943E-1,1.742379E-1,-6.4958376E-1,-5.9228916E-2,5.9208807E-2,4.32601E-1,1.1139752E0,1.5860112E-2,7.149307E-1,-4.744308E-1,-1.5351436E-2,-5.3536195E-2,6.493196E-2,1.3768475E-2,4.2455375E-2,-3.3267558E-2,1.8808326E-2,-4.310245E-2,-1.8527754E-2,-6.328311E-2,2.966982E-2,-4.6252824E-2,-5.5442084E-2,2.2367162E-3,3.7909474E-2,-8.970997E-3,5.8907595E-2,1.1928617E-2,-2.8788423E-2,4.7350954E-2,5.332596E-4,4.863949E-2,-1.7557128E-3,-4.0555086E-2],"categories":[],"categories_nodes":[],"categories_segments":[],"categories_sizes":[],"default_left":[0,0,0,0,0,0,0,0,0,0,0,0,0,0,0,0,0,0,0,0,0,0,0,0,0,0,0,0,0,0,0,0,0,0,0,0,0,0,0,0,0,0,0,0,0,0,0,0,0,0,0,0,0],"id":20,"left_children":[1,3,5,7,9,11,13,15,17,19,21,23,25,27,29,31,33,35,-1,37,39,41,-1,-1,43,45,47,49,51,-1,-1,-1,-1,-1,-1,-1,-1,-1,-1,-1,-1,-1,-1,-1,-1,-1,-1,-1,-1,-1,-1,-1,-1],"loss_changes":[1.0420732E2,5.0906662E1,1.9800262E1,2.1490955E1,3.5840714E1,3.5436783E0,3.6136782E0,1.5851627E1,2.6375694E0,2.6190939E1,6.0093307E0,5.567703E-1,6.5911045E0,3.071892E0,5.350113E-3,4.4475555E-1,1.9131884E1,2.4855747E0,0E0,5.614729E0,3.4624798E1,1.26374E1,0E0,0E0,8.3866173E-1,4.245634E-1,6.4558935E0,7.5674367E-1,6.376593E-1,0E0,0E0,0E0,0E0,0E0,0E0,0E0,0E0,0E0,0E0,0E0,0E0,0E0,0E0,0E0,0E0,0E0,0E0,0E0,0E0,0E0,0E0,0E0,0E0],"parents":[2147483647,0,0,1,1,2,2,3,3,4,4,5,5,6,6,7,7,8,8,9,9,10,10,11,11,12,12,13,13,14,14,15,15,16,16,17,17,19,19,20,20,21,21,24,24,25,25,26,26,27,27,28,28],"right_children":[2,4,6,8,10,12,14,16,18,20,22,24,26,28,30,32,34,36,-1,38,40,42,-1,-1,44,46,48,50,52,-1,-1,-1,-1,-1,-1,-1,-1,-1,-1,-1,-1,-1,-1,-1,-1,-1,-1,-1,-1,-1,-1,-1,-1],"split_conditions":[4.25E-1,2.7697176E-1,2.6E-1,1.6E-1,4.873932E-1,7.349146E-1,5.516815E-1,4.494821E-1,4.0029436E-1,5.7E-2,4.7574982E-1,2.4E-1,5.586933E-1,5E-1,2.2005646E-1,1.4E-1,5.6318355E-1,5.1E-1,-5.8570933E-2,4.173188E-1,1.2E-1,1.59E-1,-5.9228916E-2,5.9208807E-2,6.1919266E-1,1.5E-1,7.55E-1,5.81E-1,6.1E-1,-1.5351436E-2,-5.3536195E-2,6.493196E-2,1.3768475E-2,4.2455375E-2,-3.3267558E-2,1.8808326E-2,-4.310245E-2,-1.8527754E-2,-6.328311E-2,2.966982E-2,-4.6252824E-2,-5.5442084E-2,2.2367162E-3,3.7909474E-2,-8.970997E-3,5.8907595E-2,1.1928617E-2,-2.8788423E-2,4.7350954E-2,5.332596E-4,4.863949E-2,-1.7557128E-3,-4.0555086E-2],"split_indices":[0,2,3,3,1,1,2,1,1,0,2,3,2,3,1,3,4,3,0,4,3,0,0,0,2,3,0,0,3,0,0,0,0,0,0,0,0,0,0,0,0,0,0,0,0,0,0,0,0,0,0,0,0],"split_type":[0,0,0,0,0,0,0,0,0,0,0,0,0,0,0,0,0,0,0,0,0,0,0,0,0,0,0,0,0,0,0,0,0,0,0,0,0,0,0,0,0,0,0,0,0,0,0,0,0,0,0,0,0],"sum_hessian":[3.6958838E2,2.725767E2,9.701167E1,6.759875E1,2.0497795E2,8.600269E1,1.1008977E1,5.6494637E1,1.1104112E1,1.0372006E2,1.0125789E2,6.4713455E1,2.1289238E1,6.728031E0,4.280946E0,2.4416588E1,3.207805E1,4.715115E0,6.388996E0,3.0767239E1,7.295283E1,3.8476135E1,6.278175E1,6.2187397E1,2.5260599E0,1.15602E1,9.729038E0,3.224192E0,3.5038393E0,1.0557966E0,3.2251492E0,2.3356586E1,1.060002E0,1.8379894E1,1.3698156E1,2.8840797E0,1.8310355E0,1.296933E1,1.7797909E1,5.3147865E1,1.9804958E1,2.2798805E1,1.5677332E1,1.492981E0,1.033079E0,1.0448378E1,1.1118219E0,6.182524E0,3.5465138E0,1.1432109E0,2.080981E0,1.9992924E0,1.5045469E0],"tree_param":{"num_deleted":"0","num_feature":"5","num_nodes":"53","size_leaf_vector":"1"}},{"base_weights":[-4.961273E-3,-4.630661E-1,5.829948E-1,1.00964166E-1,-7.922863E-1,8.5786104E-1,-4.951599E-1,5.6935126E-1,-7.5784904E-1,-1.2116173E-2,-1.0206267E0,1.0370843E0,2.967855E-1,-8.365586E-1,4.3938273E-1,8.095229E-1,-4.2059928E-1,2.3757907E-2,-1.0039916E0,4.8974678E-1,-8.0891275E-1,-7.6325613E-1,-1.224695E0,1.2211556E0,6.255511E-1,-3.567398E-1,1.0173732E0,-1.9437544E-1,-1.2251447E0,8.3036745E-1,-4.1382313E-2,5.335551E-2,-1.0261258E-2,3.5006914E-2,-3.6731374E-2,-4.1664485E-2,3.1625193E-2,-5.6220062E-2,-2.3667524E-2,4.923885E-2,-4.485547E-2,-5.1638532E-2,1.2008722E-2,-1.0222997E-2,-5.9562214E-2,-6.188122E-2,-2.0726895E-2,6.434468E-2,3.9110597E-2,-6.147383E-5,5.619173E-2,1.6800929E-2,-4.687598E-2,5.848471E-2,9.275044E-3,3.8063783E-2,-3.6974575E-2,-2.3418086E-2,-6.424393E-2,5.319475E-2,-9.607078E-3],"categories":[],"categories_nodes":[],"categories_segments":[],"categories_sizes":[],"default_left":[0,0,0,0,0,0,0,0,0,0,0,0,0,0,0,0,0,0,0,0,0,0,0,0,0,0,0,0,0,0,0,0,0,0,0,0,0,0,0,0,0,0,0,0,0,0,0,0,0,0,0,0,0,0,0,0,0,0,0,0,0],"id":21,"left_children":[1,3,5,7,9,11,13,15,17,19,21,23,25,27,29,31,33,35,37,39,41,43,45,47,49,51,53,55,57,59,-1,-1,-1,-1,-1,-1,-1,-1,-1,-1,-1,-1,-1,-1,-1,-1,-1,-1,-1,-1,-1,-1,-1,-1,-1,-1,-1,-1,-1,-1,-1],"loss_changes":[9.8142685E1,3.8108738E1,4.77147E1,3.1150946E1,2.3044693E1,1.2515717E1,1.09128E1,1.2225428E1,5.291441E0,1.2519209E1,4.3232803E0,6.527176E0,1.5561416E1,5.8888073E0,5.3930397E0,1.0823374E1,4.1807985E0,4.457913E0,7.996979E-1,1.4081188E1,3.088005E0,1.0979698E1,5.4519653E-2,8.8204956E-1,9.931808E0,7.4223056E0,1.7608624E0,6.0039644E0,8.117676E-2,2.0569792E0,0E0,0E0,0E0,0E0,0E0,0E0,0E0,0E0,0E0,0E0,0E0,0E0,0E0,0E0,0E0,0E0,0E0,0E0,0E0,0E0,0E0,0E0,0E0,0E0,0E0,0E0,0E0,0E0,0E0,0E0,0E0],"parents":[2147483647,0,0,1,1,2,2,3,3,4,4,5,5,6,6,7,7,8,8,9,9,10,10,11,11,12,12,13,13,14,14,15,15,16,16,17,17,18,18,19,19,20,20,21,21,22,22,23,23,24,24,25,25,26,26,27,27,28,28,29,29],"right_children":[2,4,6,8,10,12,14,16,18,20,22,24,26,28,30,32,34,36,38,40,42,44,46,48,50,52,54,56,58,60,-1,-1,-1,-1,-1,-1,-1,-1,-1,-1,-1,-1,-1,-1,-1,-1,-1,-1,-1,-1,-1,-1,-1,-1,-1,-1,-1,-1,-1,-1,-1],"split_conditions":[2.02E-1,3.8850108E-1,1.8E-1,6.0202974E-1,2.6291615E-1,7.106737E-1,7.04E-1,1.2E-1,2.3017743E-1,6.0724515E-1,4.3566403E-1,6.646919E-1,5.43E-1,4.0029436E-1,5.1E-1,8.0169094E-1,1.4391227E-1,4.7E-2,1.72E-1,8E-2,1.62E-1,5.064394E-1,1.97E-1,1E-1,5.12E-1,4.7029638E-1,8.057077E-1,3.2E-1,1.319161E-1,7.1216387E-1,-4.1382313E-2,5.335551E-2,-1.0261258E-2,3.5006914E-2,-3.6731374E-2,-4.1664485E-2,3.1625193E-2,-5.6220062E-2,-2.3667524E-2,4.923885E-2,-4.485547E-2,-5.1638532E-2,1.2008722E-2,-1.0222997E-2,-5.9562214E-2,-6.188122E-2,-2.0726895E-2,6.434468E-2,3.9110597E-2,-6.147383E-5,5.619173E-2,1.6800929E-2,-4.687598E-2,5.848471E-2,9.275044E-3,3.8063783E-2,-3.6974575E-2,-2.3418086E-2,-6.424393E-2,5.319475E-2,-9.607078E-3],"split_indices":[0,1,3,2,2,2,0,3,4,4,4,1,0,1,3,4,1,0,0,3,0,2,0,3,0,1,1,3,4,2,0,0,0,0,0,0,0,0,0,0,0,0,0,0,0,0,0,0,0,0,0,0,0,0,0,0,0,0,0,0,0],"split_type":[0,0,0,0,0,0,0,0,0,0,0,0,0,0,0,0,0,0,0,0,0,0,0,0,0,0,0,0,0,0,0,0,0,0,0,0,0,0,0,0,0,0,0,0,0,0,0,0,0,0,0,0,0,0,0,0,0,0,0,0,0],"sum_hessian":[3.623723E2,2.0379683E2,1.5857549E2,7.536775E1,1.2842908E2,1.265237E2,3.2051796E1,4.8987545E1,2.6380209E1,2.931651E1,9.911257E1,9.524983E1,3.1273859E1,2.3552614E1,8.499182E0,3.9569786E1,9.417757E0,6.5343523E0,1.9845858E1,1.8223671E1,1.1092837E1,4.59282E1,5.318437E1,6.445358E1,3.079625E1,1.6664864E1,1.4608995E1,9.444579E0,1.4108035E1,6.7583103E0,1.7408712E0,3.1517637E1,8.05215E0,1.7921605E0,7.625596E0,2.5605357E0,3.9738164E0,1.5263431E1,4.582426E0,1.3643592E1,4.5800786E0,9.154888E0,1.9379494E0,2.05609E1,2.53673E1,5.182958E1,1.3547912E0,5.4377934E1,1.0075654E1,1.4081257E1,1.6714993E1,7.7919745E0,8.872889E0,1.2004751E1,2.6042438E0,3.286474E0,6.158105E0,1.6788648E0,1.2429171E1,5.4688272E0,1.2894827E0],"tree_param":{"num_deleted":"0","num_feature":"5","num_nodes":"61","size_leaf_vector":"1"}},{"base_weights":[-5.184793E-3,-4.5108005E-1,5.679108E-1,2.8342396E-1,-6.915753E-1,8.368326E-1,-4.8234707E-1,6.955949E-1,-5.103844E-1,9.502893E-2,-9.0813065E-1,1.1075922E0,4.6824446E-1,-8.1384134E-1,4.2552802E-1,9.3152934E-1,-7.931296E-1,6.73676E-1,-8.8928807E-1,6.533376E-1,-6.7472667E-1,-5.6279355E-1,-5.9900828E-2,1.2093544E0,7.2823155E-1,-1.5764397E-2,1.0401447E0,-1.8698896E-1,-1.1961476E0,8.0853903E-1,-4.0660094E-2,6.2429428E-2,1.4025042E-2,-1.0715881E-3,-5.639857E-2,6.539177E-2,-3.636865E-2,1.146911E-2,-5.883313E-2,5.0970204E-2,-5.169276E-2,-5.7342466E-2,-3.758706E-3,-4.621642E-3,-5.3863484E-2,6.304818E-2,4.0477205E-2,-2.2460971E-2,4.7566153E-2,2.8548902E-2,-4.581417E-2,5.8547527E-2,1.6353033E-2,3.463701E-2,-3.8844593E-2,-2.2780688E-2,-6.277909E-2,5.203527E-2,-9.330929E-3],"categories":[],"categories_nodes":[],"categories_segments":[],"categories_sizes":[],"default_left":[0,0,0,0,0,0,0,0,0,0,0,0,0,0,0,0,0,0,0,0,0,0,0,0,0,0,0,0,0,0,0,0,0,0,0,0,0,0,0,0,0,0,0,0,0,0,0,0,0,0,0,0,0,0,0,0,0,0,0],"id":22,"left_children":[1,3,5,7,9,11,13,15,17,19,21,23,25,27,29,31,33,35,37,39,41,43,-1,45,47,49,51,53,55,57,-1,-1,-1,-1,-1,-1,-1,-1,-1,-1,-1,-1,-1,-1,-1,-1,-1,-1,-1,-1,-1,-1,-1,-1,-1,-1,-1,-1,-1],"loss_changes":[9.106972E1,3.5600426E1,4.444997E1,1.6762386E1,2.5855873E1,1.1908829E1,1.0105024E1,1.248131E1,8.547152E0,1.4864736E1,1.1210381E1,1.862442E0,1.5093381E1,5.550974E0,5.083899E0,5.701399E0,1.297152E0,5.272649E0,4.7229996E0,1.3382435E1,4.0469017E0,1.3467094E1,0E0,1.04034424E-1,5.0355062E0,1.6631115E1,1.9472427E0,5.8905854E0,7.855797E-2,1.9565172E0,0E0,0E0,0E0,0E0,0E0,0E0,0E0,0E0,0E0,0E0,0E0,0E0,0E0,0E0,0E0,0E0,0E0,0E0,0E0,0E0,0E0,0E0,0E0,0E0,0E0,0E0,0E0,0E0,0E0],"parents":[2147483647,0,0,1,1,2,2,3,3,4,4,5,5,6,6,7,7,8,8,9,9,10,10,11,11,12,12,13,13,14,14,15,15,16,16,17,17,18,18,19,19,20,20,21,21,23,23,24,24,25,25,26,26,27,27,28,28,29,29],"right_children":[2,4,6,8,10,12,14,16,18,20,22,24,26,28,30,32,34,36,38,40,42,44,-1,46,48,50,52,54,56,58,-1,-1,-1,-1,-1,-1,-1,-1,-1,-1,-1,-1,-1,-1,-1,-1,-1,-1,-1,-1,-1,-1,-1,-1,-1,-1,-1,-1,-1],"split_conditions":[2.02E-1,2.7697176E-1,1.8E-1,6.062653E-1,2.6624018E-1,5.4192644E-1,7.04E-1,1.5E-1,2.1582505E-1,5.643647E-1,4.3566403E-1,7.4980485E-1,5.43E-1,4.0029436E-1,5.1E-1,4.494821E-1,3.8767585E-1,8E-2,1.3259192E-1,7.605659E-1,1.09E-1,5.83653E-1,-5.9900828E-2,8.71587E-1,2.64E-1,5.810341E-1,7.942347E-1,3.842789E-1,1.319161E-1,7.1216387E-1,-4.0660094E-2,6.2429428E-2,1.4025042E-2,-1.0715881E-3,-5.639857E-2,6.539177E-2,-3.636865E-2,1.146911E-2,-5.883313E-2,5.0970204E-2,-5.169276E-2,-5.7342466E-2,-3.758706E-3,-4.621642E-3,-5.3863484E-2,6.304818E-2,4.0477205E-2,-2.2460971E-2,4.7566153E-2,2.8548902E-2,-4.581417E-2,5.8547527E-2,1.6353033E-2,3.463701E-2,-3.8844593E-2,-2.2780688E-2,-6.277909E-2,5.203527E-2,-9.330929E-3],"split_indices":[0,2,3,1,1,2,0,3,4,4,4,1,0,1,3,1,4,3,2,2,0,1,0,4,0,1,1,2,4,2,0,0,0,0,0,0,0,0,0,0,0,0,0,0,0,0,0,0,0,0,0,0,0,0,0,0,0,0,0],"split_type":[0,0,0,0,0,0,0,0,0,0,0,0,0,0,0,0,0,0,0,0,0,0,0,0,0,0,0,0,0,0,0,0,0,0,0,0,0,0,0,0,0,0,0,0,0,0,0,0,0,0,0,0,0,0,0,0,0,0,0],"sum_hessian":[3.543781E2,1.9942726E2,1.5495087E2,4.914709E1,1.5028017E2,1.23525085E2,3.1425772E1,3.243139E1,1.67157E1,3.2562614E1,1.17717545E2,7.005715E1,5.346794E1,2.309619E1,8.329582E0,2.8317831E1,4.1135592E0,3.863728E0,1.2851973E1,1.8961185E1,1.360143E1,5.506308E1,6.265447E1,5.3514256E1,1.6542892E1,2.948593E1,2.398201E1,9.313809E0,1.3782379E1,6.627627E0,1.7019553E0,1.8426176E1,9.891655E0,1.5667444E0,2.5468147E0,2.705613E0,1.158115E0,2.6679955E0,1.0183977E1,1.5905914E1,3.0552716E0,7.098677E0,6.502753E0,2.938106E1,2.568202E1,4.5488506E1,8.02575E0,2.473649E0,1.4069243E1,1.8074953E1,1.1410976E1,1.9722147E1,4.2598634E0,3.6685414E0,5.6452684E0,1.6678104E0,1.2114569E1,5.336803E0,1.290824E0],"tree_param":{"num_deleted":"0","num_feature":"5","num_nodes":"59","size_leaf_vector":"1"}},{"base_weights":[-5.2657966E-3,-2.9715347E-1,8.343749E-1,5.696965E-3,-8.6042446E-1,9.9235046E-1,-3.32901E-1,3.946099E-1,-6.22093E-1,-3.0132532E-1,-1.0242915E0,1.1191859E0,5.854485E-1,3.2280374E-1,-7.453489E-1,7.178223E-1,-3.8597426E-1,-8.1143904E-1,1.9311678E-1,9.39009E-2,-1.0021574E0,-6.103747E-1,-5.7821937E-2,1.1420628E0,4.0780032E-1,1.0618032E0,4.1858983E-4,4.4381585E-2,-1.4071852E-1,-2.4447677E-1,-4.957643E-2,8.162807E-3,5.9889592E-2,3.5552397E-2,-3.379186E-2,1.2521641E-2,-4.6448868E-2,3.1720154E-2,-5.1463045E-2,-4.6318427E-2,2.6326021E-2,-5.718718E-2,-6.913508E-3,-5.0277054E-2,1.4917086E-2,3.0818967E-2,5.8433212E-2,3.5938095E-2,-8.069331E-3,5.6588113E-2,8.975345E-3,-2.7610797E-2,4.4793483E-2,-3.1883936E-2,2.415776E-2,-4.00757E-2,1.6552035E-2],"categories":[],"categories_nodes":[],"categories_segments":[],"categories_sizes":[],"default_left":[0,0,0,0,0,0,0,0,0,0,0,0,0,0,0,0,0,0,0,0,0,0,0,0,0,0,0,0,0,0,0,0,0,0,0,0,0,0,0,0,0,0,0,0,0,0,0,0,0,0,0,0,0,0,0,0,0],"id":23,"left_children":[1,3,5,7,9,11,13,15,17,19,21,23,25,27,29,31,33,35,37,39,41,43,-1,45,47,49,51,-1,53,55,-1,-1,-1,-1,-1,-1,-1,-1,-1,-1,-1,-1,-1,-1,-1,-1,-1,-1,-1,-1,-1,-1,-1,-1,-1,-1,-1],"loss_changes":[8.5532265E1,4.4179447E1,1.6931664E1,4.160602E1,7.9877243E0,3.450203E0,3.3454485E0,2.6821924E1,1.021899E1,6.171671E0,3.1017838E0,5.0335693E-1,5.85196E0,1.4682028E0,6.638522E-1,1.9702324E1,1.0484045E1,6.8592873E0,7.716634E0,7.083902E0,8.2007504E-1,7.109822E0,0E0,7.865906E-2,7.196699E-1,5.112963E-1,5.6538177E0,0E0,1.449445E0,1.4672879E0,0E0,0E0,0E0,0E0,0E0,0E0,0E0,0E0,0E0,0E0,0E0,0E0,0E0,0E0,0E0,0E0,0E0,0E0,0E0,0E0,0E0,0E0,0E0,0E0,0E0,0E0,0E0],"parents":[2147483647,0,0,1,1,2,2,3,3,4,4,5,5,6,6,7,7,8,8,9,9,10,10,11,11,12,12,13,13,14,14,15,15,16,16,17,17,18,18,19,19,20,20,21,21,23,23,24,24,25,25,26,26,28,28,29,29],"right_children":[2,4,6,8,10,12,14,16,18,20,22,24,26,28,30,32,34,36,38,40,42,44,-1,46,48,50,52,-1,54,56,-1,-1,-1,-1,-1,-1,-1,-1,-1,-1,-1,-1,-1,-1,-1,-1,-1,-1,-1,-1,-1,-1,-1,-1,-1,-1,-1],"split_conditions":[4.25E-1,5.8380383E-1,2.6E-1,5.83653E-1,2.7638897E-1,7.349146E-1,4.060464E-1,8E-2,2.35E-1,6.528467E-1,2.3017743E-1,2.4E-1,5.586933E-1,3.7578353E-1,4.6E-1,1.07E-1,1.8447201E-1,1.5600018E-1,1.5E-1,3.7E-2,2.35E-1,1.96E-1,-5.7821937E-2,4.91E-1,6.1919266E-1,9.436327E-1,7.55E-1,4.4381585E-2,6.75E-1,7.04E-1,-4.957643E-2,8.162807E-3,5.9889592E-2,3.5552397E-2,-3.379186E-2,1.2521641E-2,-4.6448868E-2,3.1720154E-2,-5.1463045E-2,-4.6318427E-2,2.6326021E-2,-5.718718E-2,-6.913508E-3,-5.0277054E-2,1.4917086E-2,3.0818967E-2,5.8433212E-2,3.5938095E-2,-8.069331E-3,5.6588113E-2,8.975345E-3,-2.7610797E-2,4.4793483E-2,-3.1883936E-2,2.415776E-2,-4.00757E-2,1.6552035E-2],"split_indices":[0,2,3,1,1,1,2,3,0,4,4,3,2,1,3,0,1,2,3,0,0,0,0,0,2,4,0,0,0,0,0,0,0,0,0,0,0,0,0,0,0,0,0,0,0,0,0,0,0,0,0,0,0,0,0,0,0],"split_type":[0,0,0,0,0,0,0,0,0,0,0,0,0,0,0,0,0,0,0,0,0,0,0,0,0,0,0,0,0,0,0,0,0,0,0,0,0,0,0,0,0,0,0,0,0,0,0,0,0,0,0,0,0,0,0,0,0],"sum_hessian":[3.4698456E2,2.5795627E2,8.902828E1,1.6840233E2,8.955395E1,7.854773E1,1.0480554E1,1.042138E2,6.418852E1,2.0941687E1,6.861226E1,5.8547413E1,2.0000317E1,4.130801E0,6.3497524E0,7.37549E1,3.0458904E1,5.2093555E1,1.2094967E1,1.3944092E1,6.9975944E0,1.7963905E1,5.0648357E1,5.613675E1,2.410664E0,1.0574875E1,9.425442E0,1.449515E0,2.681286E0,2.7492566E0,3.6004958E0,3.48401E1,3.89148E1,6.0623055E0,2.4396599E1,5.078891E0,4.7014668E1,9.240203E0,2.8547642E0,3.8122234E0,1.0131868E1,5.7338924E0,1.2637019E0,1.2445345E1,5.5185604E0,3.8681076E0,5.2268642E1,1.3890197E0,1.0216444E0,9.535999E0,1.0388753E0,6.0654263E0,3.3600152E0,1.4801292E0,1.2011569E0,1.1975125E0,1.551744E0],"tree_param":{"num_deleted":"0","num_feature":"5","num_nodes":"57","size_leaf_vector":"1"}},{"base_weights":[-5.1057125E-3,-2.88134E-1,8.186889E-1,2.2005883E-1,-6.093214E-1,9.7569704E-1,-3.24451E-1,6.3091177E-1,-3.7246624E-1,1.2079562E-1,-8.161795E-1,1.0762395E0,4.7439507E-1,3.1655627E-1,-7.310439E-1,9.972211E-1,-1.9776683E-1,-9.7819704E-1,5.2936887E-3,5.345696E-1,-6.790522E-1,-5.878461E-2,-5.3996277E-1,7.385265E-1,5.772664E-2,8.2320666E-1,-4.7281605E-1,4.3491177E-2,-1.3654083E-1,-2.4010935E-1,-4.8762284E-2,5.8118697E-2,9.869223E-3,3.656776E-2,-2.860987E-2,-4.9151117E-3,-5.6231987E-2,2.0610185E-2,-4.1018184E-2,4.4127475E-2,-3.989185E-2,-3.6823587E-3,-5.2625995E-2,-1.9542708E-3,-4.9809393E-2,4.8995275E-2,-5.47713E-3,5.904724E-2,-5.489608E-3,2.141306E-2,-5.651743E-2,-3.1077001E-2,2.3594221E-2,-3.9327085E-2,1.607847E-2],"categories":[],"categories_nodes":[],"categories_segments":[],"categories_sizes":[],"default_left":[0,0,0,0,0,0,0,0,0,0,0,0,0,0,0,0,0,0,0,0,0,0,0,0,0,0,0,0,0,0,0,0,0,0,0,0,0,0,0,0,0,0,0,0,0,0,0,0,0,0,0,0,0,0,0],"id":24,"left_children":[1,3,5,7,9,11,13,15,17,19,21,23,25,27,29,31,33,35,37,39,41,-1,43,45,-1,47,49,-1,51,53,-1,-1,-1,-1,-1,-1,-1,-1,-1,-1,-1,-1,-1,-1,-1,-1,-1,-1,-1,-1,-1,-1,-1,-1,-1],"loss_changes":[7.973077E1,4.1675575E1,1.6011452E1,2.440731E1,2.369106E1,3.3771973E0,3.179261E0,1.8109135E1,9.4524765E0,1.2064908E1,1.1465485E1,8.2528687E-1,5.2375436E0,1.3941554E0,6.3176155E-1,5.197708E0,7.0014887E0,1.9335499E0,9.2155E0,1.1767963E1,2.7476945E0,0E0,1.6130196E1,3.1203527E0,0E0,3.8310194E0,3.200394E0,0E0,1.3737061E0,1.3964942E0,0E0,0E0,0E0,0E0,0E0,0E0,0E0,0E0,0E0,0E0,0E0,0E0,0E0,0E0,0E0,0E0,0E0,0E0,0E0,0E0,0E0,0E0,0E0,0E0,0E0],"parents":[2147483647,0,0,1,1,2,2,3,3,4,4,5,5,6,6,7,7,8,8,9,9,10,10,11,11,12,12,13,13,14,14,15,15,16,16,17,17,18,18,19,19,20,20,22,22,23,23,25,25,26,26,28,28,29,29],"right_children":[2,4,6,8,10,12,14,16,18,20,22,24,26,28,30,32,34,36,38,40,42,-1,44,46,-1,48,50,-1,52,54,-1,-1,-1,-1,-1,-1,-1,-1,-1,-1,-1,-1,-1,-1,-1,-1,-1,-1,-1,-1,-1,-1,-1,-1,-1],"split_conditions":[4.25E-1,3.715465E-1,2.6E-1,5.83653E-1,2.6624018E-1,7.9665947E-1,4.060464E-1,8E-2,1E-1,6.528467E-1,1.07E-1,5.46E-1,7.7785075E-1,3.7578353E-1,4.6E-1,8.485483E-1,2.0272811E-1,1.6894121E-1,5.6867087E-1,7.922003E-1,3E-2,-5.878461E-2,5.471315E-1,7.534649E-1,5.772664E-2,7.853541E-1,5.161833E-1,4.3491177E-2,6.75E-1,7.04E-1,-4.8762284E-2,5.8118697E-2,9.869223E-3,3.656776E-2,-2.860987E-2,-4.9151117E-3,-5.6231987E-2,2.0610185E-2,-4.1018184E-2,4.4127475E-2,-3.989185E-2,-3.6823587E-3,-5.2625995E-2,-1.9542708E-3,-4.9809393E-2,4.8995275E-2,-5.47713E-3,5.904724E-2,-5.489608E-3,2.141306E-2,-5.651743E-2,-3.1077001E-2,2.3594221E-2,-3.9327085E-2,1.607847E-2],"split_indices":[0,2,3,1,1,1,2,3,0,4,0,0,4,1,3,4,1,4,4,2,3,0,1,2,0,2,2,0,0,0,0,0,0,0,0,0,0,0,0,0,0,0,0,0,0,0,0,0,0,0,0,0,0,0,0],"split_type":[0,0,0,0,0,0,0,0,0,0,0,0,0,0,0,0,0,0,0,0,0,0,0,0,0,0,0,0,0,0,0,0,0,0,0,0,0,0,0,0,0,0,0,0,0,0,0,0,0,0,0,0,0,0,0],"sum_hessian":[3.3994968E2,2.535043E2,8.6445366E1,9.8294495E1,1.5520981E2,7.6134865E1,1.03105E1,5.8007614E1,4.028688E1,3.4357872E1,1.2085194E2,6.2460697E1,1.3674166E1,4.087641E0,6.22286E0,4.008503E1,1.7922586E1,1.486372E1,2.5423159E1,2.2862432E1,1.149544E1,5.109383E1,6.97581E1,1.3718726E1,4.8741974E1,1.0089581E1,3.5845845E0,1.4262943E0,2.6613464E0,2.7259493E0,3.4969106E0,3.2849E1,7.2360306E0,4.874249E0,1.3048338E1,2.3592906E0,1.250443E1,1.7365599E1,8.057559E0,1.8395716E1,4.466716E0,4.8426013E0,6.652838E0,3.376933E1,3.5988777E1,1.0558183E1,3.1605434E0,7.101076E0,2.988505E0,1.6593328E0,1.9252517E0,1.4688857E0,1.1924607E0,1.1788032E0,1.5471462E0],"tree_param":{"num_deleted":"0","num_feature":"5","num_nodes":"55","size_leaf_vector":"1"}},{"base_weights":[-5.1846667E-3,-4.1868547E-1,5.3236115E-1,1.0626271E-1,-7.2593296E-1,7.931117E-1,-4.685951E-1,5.4266566E-1,-6.2261236E-1,-1.2300822E-2,-9.2641884E-1,9.687546E-1,2.5748277E-1,-7.82168E-1,3.961314E-1,7.2179157E-1,-8.10101E-1,5.395818E-2,-9.709797E-1,5.5393535E-1,-7.859792E-1,-5.1943517E-1,-1.1180642E0,1.1561283E0,5.638111E-1,-3.2880542E-1,9.513515E-1,-1.8594106E-1,-1.1494616E0,7.5815475E-1,-3.872614E-2,5.9287816E-2,3.696737E-3,4.883076E-3,-5.3145047E-2,3.9985985E-2,-3.761664E-2,-4.847452E-3,-5.7616223E-2,4.8453834E-2,-5.0007742E-2,-5.3884383E-2,-3.091853E-3,-2.5307143E-3,-5.4136086E-2,-5.7115007E-2,-2.1422388E-2,5.8891363E-2,9.581133E-3,-4.4474035E-4,5.3097736E-2,1.6265634E-2,-4.4314135E-2,5.5607785E-2,8.475876E-3,3.285748E-2,-3.7815917E-2,-2.1340601E-2,-6.047191E-2,4.994172E-2,-1.0570485E-2],"categories":[],"categories_nodes":[],"categories_segments":[],"categories_sizes":[],"default_left":[0,0,0,0,0,0,0,0,0,0,0,0,0,0,0,0,0,0,0,0,0,0,0,0,0,0,0,0,0,0,0,0,0,0,0,0,0,0,0,0,0,0,0,0,0,0,0,0,0,0,0,0,0,0,0,0,0,0,0,0,0],"id":25,"left_children":[1,3,5,7,9,11,13,15,17,19,21,23,25,27,29,31,33,35,37,39,41,43,45,47,49,51,53,55,57,59,-1,-1,-1,-1,-1,-1,-1,-1,-1,-1,-1,-1,-1,-1,-1,-1,-1,-1,-1,-1,-1,-1,-1,-1,-1,-1,-1,-1,-1,-1,-1],"loss_changes":[7.445826E1,3.061393E1,3.8386078E1,2.2849575E1,1.7093945E1,1.0656258E1,8.642208E0,1.1441049E1,6.4092236E0,1.2366539E1,6.698021E0,5.9442368E0,1.2511951E1,4.79844E0,4.3343E0,1.1963434E1,1.4141426E0,6.6834607E0,2.7184982E0,1.149333E1,2.451871E0,8.328116E0,5.5648804E-1,9.9822235E-1,8.411833E0,6.486359E0,1.5703955E0,5.2662525E0,8.9279175E-2,1.9049659E0,0E0,0E0,0E0,0E0,0E0,0E0,0E0,0E0,0E0,0E0,0E0,0E0,0E0,0E0,0E0,0E0,0E0,0E0,0E0,0E0,0E0,0E0,0E0,0E0,0E0,0E0,0E0,0E0,0E0,0E0,0E0],"parents":[2147483647,0,0,1,1,2,2,3,3,4,4,5,5,6,6,7,7,8,8,9,9,10,10,11,11,12,12,13,13,14,14,15,15,16,16,17,17,18,18,19,19,20,20,21,21,22,22,23,23,24,24,25,25,26,26,27,27,28,28,29,29],"right_children":[2,4,6,8,10,12,14,16,18,20,22,24,26,28,30,32,34,36,38,40,42,44,46,48,50,52,54,56,58,60,-1,-1,-1,-1,-1,-1,-1,-1,-1,-1,-1,-1,-1,-1,-1,-1,-1,-1,-1,-1,-1,-1,-1,-1,-1,-1,-1,-1,-1,-1,-1],"split_conditions":[2.02E-1,3.6270174E-1,1.8E-1,6.062653E-1,2.6624018E-1,7.106737E-1,7.04E-1,2.1E-1,3.0975372E-1,5.643647E-1,2.961459E-1,6.646919E-1,5.43E-1,4.0029436E-1,5.1E-1,5.966738E-1,1.12612255E-1,7.68965E-1,1.5600018E-1,7.605659E-1,1.56E-1,5.810341E-1,1.95E-1,9.875083E-1,5.12E-1,4.069287E-1,8.057077E-1,3.842789E-1,1.319161E-1,7.1216387E-1,-3.872614E-2,5.9287816E-2,3.696737E-3,4.883076E-3,-5.3145047E-2,3.9985985E-2,-3.761664E-2,-4.847452E-3,-5.7616223E-2,4.8453834E-2,-5.0007742E-2,-5.3884383E-2,-3.091853E-3,-2.5307143E-3,-5.4136086E-2,-5.7115007E-2,-2.1422388E-2,5.8891363E-2,9.581133E-3,-4.4474035E-4,5.3097736E-2,1.6265634E-2,-4.4314135E-2,5.5607785E-2,8.475876E-3,3.285748E-2,-3.7815917E-2,-2.1340601E-2,-6.047191E-2,4.994172E-2,-1.0570485E-2],"split_indices":[0,2,3,1,1,2,0,3,4,4,4,1,0,1,3,4,4,1,2,2,0,1,0,4,0,4,1,2,4,2,0,0,0,0,0,0,0,0,0,0,0,0,0,0,0,0,0,0,0,0,0,0,0,0,0,0,0,0,0,0,0],"split_type":[0,0,0,0,0,0,0,0,0,0,0,0,0,0,0,0,0,0,0,0,0,0,0,0,0,0,0,0,0,0,0,0,0,0,0,0,0,0,0,0,0,0,0,0,0,0,0,0,0,0,0,0,0,0,0,0,0,0,0,0,0],"sum_hessian":[3.3297888E2,1.8832965E2,1.4464925E2,6.977301E1,1.1855664E2,1.1492005E2,2.972919E1,4.3802433E1,2.5970573E1,2.6234821E1,9.232182E1,8.593252E1,2.898754E1,2.1887627E1,7.8415637E0,3.909246E1,4.709975E0,9.114415E0,1.6856157E1,1.5312213E1,1.0922608E1,3.0743793E1,6.1578026E1,5.7480396E1,2.8452118E1,1.5996954E1,1.2990585E1,8.917735E0,1.2969892E1,6.2584977E0,1.5830661E0,2.2295319E1,1.6797142E1,1.1596272E0,3.5503473E0,4.7391706E0,4.375244E0,3.1600783E0,1.3696079E1,1.2381264E1,2.9309497E0,7.438077E0,3.4845312E0,1.7373642E1,1.3370151E1,5.8853252E1,2.7247727E0,5.5999382E1,1.4810133E0,1.36923895E1,1.4759729E1,7.552111E0,8.444842E0,1.0424106E1,2.5664797E0,3.5371873E0,5.3805475E0,1.6159418E0,1.135395E1,4.9896936E0,1.2688041E0],"tree_param":{"num_deleted":"0","num_feature":"5","num_nodes":"61","size_leaf_vector":"1"}},{"base_weights":[-5.5432017E-3,-2.7292997E-1,7.901976E-1,1.2570353E-2,-8.179622E-1,9.4268346E-1,-3.3763152E-1,5.582991E-1,-3.7919372E-1,-5.247451E-1,-5.679029E-2,1.0524943E0,4.2148483E-1,7.269381E-2,-4.4137523E-2,7.961855E-1,-5.585217E-1,-9.37429E-1,-2.6530476E-2,-9.289297E-2,-1.0093011E0,1.1237524E0,6.730535E-1,7.886195E-1,-5.1052034E-1,6.0270506E-1,-4.1484693E-1,7.0081366E-4,5.4001756E-2,-2.1059278E-3,-4.9122024E-2,-1.30747575E-2,-5.5782694E-2,1.9320887E-2,-5.0254304E-2,1.4156413E-2,-5.74159E-2,4.3899706E-3,-5.3561408E-2,2.2069871E-2,5.785165E-2,-4.6856045E-3,4.7919374E-2,5.742994E-2,-5.3723077E-3,1.9842355E-2,-5.5566657E-2,7.599729E-4,4.1781988E-2,-1.1056042E-3,-3.6337152E-2],"categories":[],"categories_nodes":[],"categories_segments":[],"categories_sizes":[],"default_left":[0,0,0,0,0,0,0,0,0,0,0,0,0,0,0,0,0,0,0,0,0,0,0,0,0,0,0,0,0,0,0,0,0,0,0,0,0,0,0,0,0,0,0,0,0,0,0,0,0,0,0],"id":26,"left_children":[1,3,5,7,9,11,13,15,17,19,-1,21,23,25,-1,27,29,31,33,35,37,39,41,43,45,47,49,-1,-1,-1,-1,-1,-1,-1,-1,-1,-1,-1,-1,-1,-1,-1,-1,-1,-1,-1,-1,-1,-1,-1,-1],"loss_changes":[6.973813E1,3.818242E1,1.449564E1,3.4840195E1,7.2644577E0,3.7276993E0,2.4249754E0,1.85343E1,1.8654102E1,9.4754305E0,0E0,8.532715E-1,5.3131986E0,2.0448182E0,0E0,1.2538841E1,2.704691E0,4.130005E0,2.4300781E1,1.0358223E1,1.55126E0,5.935402E-1,2.6945696E0,3.5711775E0,2.9829226E0,4.9851692E-1,4.996379E-1,0E0,0E0,0E0,0E0,0E0,0E0,0E0,0E0,0E0,0E0,0E0,0E0,0E0,0E0,0E0,0E0,0E0,0E0,0E0,0E0,0E0,0E0,0E0,0E0],"parents":[2147483647,0,0,1,1,2,2,3,3,4,4,5,5,6,6,7,7,8,8,9,9,11,11,12,12,13,13,15,15,16,16,17,17,18,18,19,19,20,20,21,21,22,22,23,23,24,24,25,25,26,26],"right_children":[2,4,6,8,10,12,14,16,18,20,-1,22,24,26,-1,28,30,32,34,36,38,40,42,44,46,48,50,-1,-1,-1,-1,-1,-1,-1,-1,-1,-1,-1,-1,-1,-1,-1,-1,-1,-1,-1,-1,-1,-1,-1,-1],"split_conditions":[4.25E-1,5.8380383E-1,2.9E-1,4.399097E-1,4.7029638E-1,7.9665947E-1,5.516815E-1,1.6E-1,1.03E-1,4.8719198E-1,-5.679029E-2,7.534649E-1,7.7785075E-1,5E-1,-4.4137523E-2,3.2E-2,3.2E-1,2.0882164E-1,8E-2,1.2E-1,1.1430123E-1,4.8E-1,5.46E-1,7.853541E-1,5.161833E-1,7.11E-1,6.1E-1,7.0081366E-4,5.4001756E-2,-2.1059278E-3,-4.9122024E-2,-1.30747575E-2,-5.5782694E-2,1.9320887E-2,-5.0254304E-2,1.4156413E-2,-5.74159E-2,4.3899706E-3,-5.3561408E-2,2.2069871E-2,5.785165E-2,-4.6856045E-3,4.7919374E-2,5.742994E-2,-5.3723077E-3,1.9842355E-2,-5.5566657E-2,7.599729E-4,4.1781988E-2,-1.1056042E-3,-3.6337152E-2],"split_indices":[0,2,3,1,1,1,2,3,0,4,0,2,4,3,0,0,3,4,3,3,1,0,0,2,2,0,3,0,0,0,0,0,0,0,0,0,0,0,0,0,0,0,0,0,0,0,0,0,0,0,0],"split_type":[0,0,0,0,0,0,0,0,0,0,0,0,0,0,0,0,0,0,0,0,0,0,0,0,0,0,0,0,0,0,0,0,0,0,0,0,0,0,0,0,0,0,0,0,0,0,0,0,0,0,0],"sum_hessian":[3.2574847E2,2.4431139E2,8.1437096E1,1.6096906E2,8.334233E1,7.188253E1,9.554568E0,6.708889E1,9.3880165E1,4.472945E1,3.8612877E1,5.8531265E1,1.3351262E1,5.945717E0,3.6088517E0,5.5544777E1,1.1544116E1,3.5704655E1,5.8175514E1,2.4281073E1,2.0448378E1,4.7625668E1,1.0905599E1,9.688588E0,3.662674E0,2.7355998E0,3.2101173E0,1.5069365E1,4.0475414E1,5.6999683E0,5.844148E0,7.9647703E0,2.7739883E1,4.1336655E1,1.6838858E1,1.8442291E1,5.8387823E0,1.0702373E0,1.937814E1,2.8781247E0,4.474754E1,3.1397784E0,7.7658205E0,6.7108097E0,2.977779E0,1.5943367E0,2.0683374E0,1.0791156E0,1.656484E0,1.894937E0,1.3151803E0],"tree_param":{"num_deleted":"0","num_feature":"5","num_nodes":"51","size_leaf_vector":"1"}},{"base_weights":[-5.850798E-3,-4.006387E-1,5.1177603E-1,2.7434215E-1,-6.270226E-1,7.641462E-1,-4.5054147E-1,4.9778396E-1,-9.327498E-1,-1.4276849E-1,-9.2789555E-1,1.0305321E0,4.123281E-1,-7.5111884E-1,3.787077E-1,1.1832738E0,-4.219127E-2,-7.4098716E-3,-5.4309547E-2,3.475606E-1,-7.853832E-1,-6.5687525E-1,-1.1672107E0,1.1388934E0,6.4730793E-1,-1.5373695E-2,9.647703E-1,-1.6658682E-1,-1.1169755E0,7.284277E-1,-3.7410244E-2,6.120631E-2,1.4879021E-2,3.447975E-2,-4.9057987E-2,3.437377E-2,-2.9935926E-2,1.0808439E-2,-4.7906842E-2,-5.4252893E-3,-5.6293588E-2,-5.914801E-2,-1.6796468E-2,5.988139E-2,3.5538692E-2,-2.0545883E-2,4.3253552E-2,2.650649E-2,-4.35231E-2,5.5430014E-2,1.4622535E-2,3.6191866E-2,-3.3911128E-2,-2.0488681E-2,-5.8814604E-2,4.8326347E-2,-1.0182618E-2],"categories":[],"categories_nodes":[],"categories_segments":[],"categories_sizes":[],"default_left":[0,0,0,0,0,0,0,0,0,0,0,0,0,0,0,0,0,0,0,0,0,0,0,0,0,0,0,0,0,0,0,0,0,0,0,0,0,0,0,0,0,0,0,0,0,0,0,0,0,0,0,0,0,0,0,0,0],"id":27,"left_children":[1,3,5,7,9,11,13,15,17,19,21,23,25,27,29,31,33,-1,-1,35,37,39,41,43,45,47,49,51,53,55,-1,-1,-1,-1,-1,-1,-1,-1,-1,-1,-1,-1,-1,-1,-1,-1,-1,-1,-1,-1,-1,-1,-1,-1,-1,-1,-1],"loss_changes":[6.558111E1,2.799091E1,3.406847E1,1.2984474E1,1.9775116E1,9.920074E0,7.632434E0,1.4789747E1,7.5376034E-1,1.714383E1,4.6874695E0,1.8437271E0,1.16472E1,4.5128193E0,3.8978944E0,2.7184868E-1,1.6645756E1,0E0,0E0,1.0403144E1,4.2695932E0,1.06078415E1,1.7043686E-1,3.3397675E-1,4.046458E0,1.3863916E1,1.7546883E0,4.8797445E0,7.7528E-2,1.7501938E0,0E0,0E0,0E0,0E0,0E0,0E0,0E0,0E0,0E0,0E0,0E0,0E0,0E0,0E0,0E0,0E0,0E0,0E0,0E0,0E0,0E0,0E0,0E0,0E0,0E0,0E0,0E0],"parents":[2147483647,0,0,1,1,2,2,3,3,4,4,5,5,6,6,7,7,8,8,9,9,10,10,11,11,12,12,13,13,14,14,15,15,16,16,19,19,20,20,21,21,22,22,23,23,24,24,25,25,26,26,27,27,28,28,29,29],"right_children":[2,4,6,8,10,12,14,16,18,20,22,24,26,28,30,32,34,-1,-1,36,38,40,42,44,46,48,50,52,54,56,-1,-1,-1,-1,-1,-1,-1,-1,-1,-1,-1,-1,-1,-1,-1,-1,-1,-1,-1,-1,-1,-1,-1,-1,-1,-1,-1],"split_conditions":[2.02E-1,2.7697176E-1,1.8E-1,1.5E-1,3.8850108E-1,5.4192644E-1,7.04E-1,4.494821E-1,1.20059215E-1,5.643647E-1,4.3566403E-1,7.4980485E-1,5.43E-1,4.0029436E-1,5.1E-1,9.4034207E-1,5.5460703E-1,-7.4098716E-3,-5.4309547E-2,6.973743E-1,3.580366E-1,5.064394E-1,1.97E-1,8.71587E-1,2.64E-1,5.810341E-1,7.942347E-1,3.2E-1,1.319161E-1,7.1216387E-1,-3.7410244E-2,6.120631E-2,1.4879021E-2,3.447975E-2,-4.9057987E-2,3.437377E-2,-2.9935926E-2,1.0808439E-2,-4.7906842E-2,-5.4252893E-3,-5.6293588E-2,-5.914801E-2,-1.6796468E-2,5.988139E-2,3.5538692E-2,-2.0545883E-2,4.3253552E-2,2.650649E-2,-4.35231E-2,5.5430014E-2,1.4622535E-2,3.6191866E-2,-3.3911128E-2,-2.0488681E-2,-5.8814604E-2,4.8326347E-2,-1.0182618E-2],"split_indices":[0,2,3,3,1,2,0,1,2,4,4,1,0,1,3,4,4,0,0,2,2,2,0,4,0,1,1,3,4,2,0,0,0,0,0,0,0,0,0,0,0,0,0,0,0,0,0,0,0,0,0,0,0,0,0,0,0],"split_type":[0,0,0,0,0,0,0,0,0,0,0,0,0,0,0,0,0,0,0,0,0,0,0,0,0,0,0,0,0,0,0,0,0,0,0,0,0,0,0,0,0,0,0,0,0,0,0,0,0,0,0,0,0,0,0,0,0],"sum_hessian":[3.1891766E2,1.8105508E2,1.3786256E2,4.5420017E1,1.3563507E2,1.0938263E2,2.8479937E1,3.8821484E1,6.5985317E0,5.254253E1,8.309254E1,6.115145E1,4.8231182E1,2.0972328E1,7.5076084E0,1.6580923E1,2.224056E1,1.4009951E0,5.1975365E0,3.0062973E1,2.2479559E1,4.0721233E1,4.23713E1,4.6134506E1,1.5016945E1,2.773267E1,2.0498512E1,8.633635E0,1.2338694E1,5.999396E0,1.5082126E0,1.5484589E1,1.096335E0,1.264851E1,9.592051E0,2.2319159E1,7.743813E0,3.2700262E0,